GSPC,DJI,GSPE,SP35,SP45,SP60,SHY,SPGSCI,target,std
1.3488853037494068,0.07201957294404743,-0.13115317591866657,-0.44239250668537805,-0.6216500193099721,-0.08616243474654343,0.8860164411327723,-0.025563181165666485,0.02,0.004753251781516006
1.3486681860724763,0.07253848917008077,-0.13136904862199297,-0.44028188963193565,-0.6215818633241167,-0.08660763190186867,0.8841615923028899,-0.025527834065533037,0.031093959595959595,0.004759980414243035
1.348451068395546,0.07305740539611409,-0.1315849213253194,-0.4381712725784933,-0.6215137073382614,-0.08705282905719391,0.8823067434730075,-0.025492486965399585,0.04218791919191919,0.004776043991313855
1.348233950718616,0.07357632162214608,-0.13180079402864525,-0.43606065552505635,-0.6214455513524062,-0.08749802621251801,0.8804518946431299,-0.025457139865266223,0.05328187878787878,0.004801442512728387
1.3480168330416857,0.07409523784817941,-0.13201666673197165,-0.433950038471614,-0.6213773953665509,-0.08794322336784326,0.8785970458132475,-0.02542179276513277,0.06437583838383838,0.004836175978486762
1.3477997153647554,0.07461415407421274,-0.13223253943529809,-0.43183942141817167,-0.6213092393806955,-0.08838842052316849,0.8767421969833651,-0.02538644566499932,0.07546979797979797,0.004880244388588927
1.3475825976878255,0.07513307030024474,-0.13244841213862393,-0.4297288043647347,-0.6212410833948403,-0.0888336176784926,0.8748873481534875,-0.02535109856486596,0.08656375757575757,0.004933647743034734
1.347365480010895,0.07565198652627807,-0.13266428484195034,-0.42761818731129236,-0.621172927408985,-0.08927881483381783,0.873032499323605,-0.02531575146473251,0.09765771717171716,0.004996386041824455
1.3471483623339646,0.07617090275231139,-0.13288015754527677,-0.42550757025785,-0.6211047714231297,-0.08972401198914308,0.8711776504937226,-0.02528040436459906,0.10875167676767676,0.005068459284957965
1.3469312446570343,0.07668981897834472,-0.13309603024860317,-0.4233969532044076,-0.6210366154372743,-0.09016920914446831,0.8693228016638401,-0.025245057264465607,0.11984563636363636,0.005149867472435266
1.3467141269801037,0.07720873520437806,-0.13331190295192957,-0.4212863361509653,-0.620968459451419,-0.09061440629979356,0.8674679528339577,-0.025209710164332155,0.13093959595959595,0.0052406106042563565
1.346497009303174,0.07772765143041005,-0.13352777565525545,-0.4191757190975283,-0.6209003034655638,-0.09105960345511765,0.8656131040040801,-0.025174363064198794,0.14203355555555552,0.005340688680420968
1.3462798916262435,0.07824656765644337,-0.13374364835858185,-0.417065102044086,-0.6208321474797085,-0.0915048006104429,0.8637582551741977,-0.025139015964065342,0.15312751515151513,0.005450101700929615
1.3460627739493132,0.0787654838824767,-0.13395952106190825,-0.41495448499064364,-0.6207639914938531,-0.091949997765768135,0.8619034063443153,-0.025103668863931894,0.16422147474747473,0.005568849665782052
1.3458456562723833,0.0792844001085087,-0.13417539376523413,-0.4128438679372067,-0.620695835507998,-0.09239519492109224,0.8600485575144377,-0.025068321763798532,0.1753154343434343,0.005696932574977938
1.345628538595453,0.07980331633454203,-0.13439126646856053,-0.41073325088376433,-0.6206276795221426,-0.09284039207641748,0.8581937086845552,-0.02503297466366508,0.1864093939393939,0.00583435042851793
1.3454114209185226,0.08032223256057536,-0.13460713917188694,-0.40862263383032194,-0.6205595235362873,-0.09328558923174272,0.8563388598546728,-0.02499762756353163,0.1975033535353535,0.005981103226401711
1.3451943032415927,0.08084114878660736,-0.1348230118752128,-0.40651201677688503,-0.6204913675504321,-0.09373078638706682,0.8544840110247952,-0.024962280463398268,0.2085973131313131,0.006137190968628872
1.3449771855646624,0.08136006501264069,-0.13503888457853921,-0.40440139972344263,-0.6204232115645768,-0.09417598354239207,0.8526291621949127,-0.024926933363264816,0.2196912727272727,0.00630261365520021
1.3447600678877318,0.08187898123867401,-0.13525475728186562,-0.4022907826700003,-0.6203550555787214,-0.0946211806977173,0.8507743133650303,-0.024891586263131368,0.23078523232323228,0.006477371286115337
1.344542950210802,0.08239789746470602,-0.1354706299851915,-0.40018016561656333,-0.6202868995928663,-0.09506637785304141,0.8489194645351527,-0.024856239162998006,0.24187919191919188,0.006661463861373772
1.3443258325338716,0.08291681369073933,-0.1356865026885179,-0.398069548563121,-0.6202187436070109,-0.09551157500836664,0.8470646157052703,-0.024820892062864554,0.2529731515151515,0.006854891380976455
1.3441087148569413,0.08343572991677267,-0.1359023753918443,-0.39595893150967865,-0.6201505876211556,-0.09595677216369189,0.8452097668753878,-0.024785544962731103,0.2640671111111111,0.007057653844922929
1.3438915971800107,0.083954646142806,-0.13611824809517073,-0.39384831445623625,-0.6200824316353003,-0.09640196931901712,0.8433549180455054,-0.02475019786259765,0.2751610707070707,0.007269751253213193
1.3436744795030804,0.08447356236883932,-0.13633412079849713,-0.3917376974027939,-0.6200142756494449,-0.09684716647434237,0.841500069215623,-0.0247148507624642,0.2862550303030303,0.007491183605847246
1.3434573618261505,0.08499247859487133,-0.13654999350182298,-0.389627080349357,-0.6199461196635897,-0.09729236362966646,0.8396452203857454,-0.02467950366233084,0.2973489898989899,0.007721950902824486
1.3432402441492202,0.08551139482090465,-0.1367658662051494,-0.3875164632959146,-0.6198779636777344,-0.09773756078499171,0.837790371555863,-0.02464415656219739,0.3084429494949495,0.007962053144146095
1.3430231264722898,0.08603031104693798,-0.13698173890847581,-0.38540584624247226,-0.6198098076918791,-0.09818275794031694,0.8359355227259806,-0.024608809462063938,0.3195369090909091,0.008211490329811494
1.34280600879536,0.08654922727296997,-0.13719761161180166,-0.3832952291890353,-0.6197416517060239,-0.09862795509564105,0.8340806738961029,-0.024573462361930577,0.33063086868686864,0.008470262459820008
1.3425888911184296,0.0870681434990033,-0.1374134843151281,-0.38118461213559296,-0.6196734957201686,-0.09907315225096629,0.8322258250662204,-0.024538115261797125,0.34172482828282824,0.008738369534172962
1.342371773441499,0.08758705972503664,-0.1376293570184545,-0.3790739950821506,-0.6196053397343132,-0.09951834940629153,0.830370976236338,-0.024502768161663673,0.35281878787878784,0.009015811552869707
1.3421546557645694,0.08810597595106863,-0.13784522972178037,-0.37696337802871366,-0.619537183748458,-0.09996354656161563,0.8285161274064604,-0.024467421061530315,0.36391274747474744,0.009302588515909496
1.3419375380876388,0.08862489217710195,-0.13806110242510677,-0.3748527609752713,-0.6194690277626027,-0.10040874371694088,0.826661278576578,-0.024432073961396863,0.37500670707070705,0.009598700423293798
1.3417204204107085,0.0891438084031353,-0.13827697512843318,-0.3727421439218289,-0.6194008717767474,-0.10085394087226611,0.8248064297466956,-0.024396726861263412,0.38610066666666665,0.009904147275021888
1.3415033027337786,0.08966272462916729,-0.13849284783175905,-0.370631526868392,-0.6193327157908922,-0.10129913802759022,0.822951580916818,-0.02436137976113005,0.39719462626262625,0.010218929071092949
1.3412861850568483,0.09018164085520061,-0.13870872053508546,-0.36852090981494967,-0.6192645598050368,-0.10174433518291545,0.8210967320869356,-0.0243260326609966,0.40828858585858585,0.010543045811508596
1.3410690673799177,0.09070055708123394,-0.13892459323841186,-0.3664102927615073,-0.6191964038191815,-0.1021895323382407,0.8192418832570532,-0.024290685560863147,0.41938254545454545,0.010876497496268032
1.3408519497029874,0.09121947330726726,-0.1391404659417383,-0.36429967570806493,-0.6191282478333262,-0.10263472949356595,0.8173870344271708,-0.0242553384607297,0.430476505050505,0.011219284125371258
1.3406348320260575,0.09173838953329927,-0.13935633864506414,-0.36218905865462797,-0.619060091847471,-0.10307992664889004,0.8155321855972931,-0.024219991360596337,0.4415704646464646,0.01157140569881736
1.3404177143491272,0.0922573057593326,-0.13957221134839054,-0.36007844160118563,-0.6189919358616157,-0.10352512380421527,0.8136773367674106,-0.024184644260462886,0.4526644242424242,0.011932862216608142
1.3402005966721968,0.09277622198536592,-0.13978808405171694,-0.3579678245477433,-0.6189237798757603,-0.10397032095954052,0.8118224879375282,-0.024149297160329434,0.4637583838383838,0.012303653678742714
1.3399834789952663,0.09329513821139926,-0.14000395675504337,-0.35585720749430094,-0.618855623889905,-0.10441551811486577,0.8099676391076458,-0.024113950060195982,0.4748523434343434,0.012683780085221077
1.3397663613183366,0.09381405443743125,-0.14021982945836922,-0.353746590440864,-0.6187874679040498,-0.10486071527018986,0.8081127902777682,-0.024078602960062624,0.485946303030303,0.013073241436042219
1.339549243641406,0.09433297066346458,-0.14043570216169565,-0.3516359733874216,-0.6187193119181945,-0.1053059124255151,0.8062579414478858,-0.024043255859929172,0.4970402626262626,0.013472037731208137
1.3393321259644757,0.0948518868894979,-0.14065157486502206,-0.34952535633397924,-0.6186511559323391,-0.10575110958084034,0.8044030926180034,-0.02400790875979572,0.5081342222222222,0.013880168970717845
1.3391150082875458,0.09537080311552991,-0.1408674475683479,-0.3474147392805423,-0.618582999946484,-0.10619630673616444,0.8025482437881257,-0.02397256165966236,0.5192281818181818,0.014297635154570259
1.3388978906106155,0.09588971934156323,-0.14108332027167433,-0.34530412222709994,-0.6185148439606286,-0.10664150389148969,0.8006933949582433,-0.023937214559528908,0.5303221414141414,0.014724436282767523
1.3386807729336851,0.09640863556759656,-0.14129919297500074,-0.3431935051736576,-0.6184466879747733,-0.10708670104681492,0.7988385461283609,-0.023901867459395456,0.541416101010101,0.015160572355308577
1.3384636552567553,0.09692755179362855,-0.14151506567832658,-0.34108288812022064,-0.6183785319889181,-0.10753189820213903,0.7969836972984832,-0.023866520359262094,0.5525100606060606,0.015606043372192267
1.3382465375798247,0.09744646801966189,-0.14173093838165302,-0.3389722710667783,-0.6183103760030628,-0.10797709535746428,0.7951288484686008,-0.023831173259128646,0.5636040202020202,0.016060849333420876
1.3380294199028944,0.09796538424569522,-0.14194681108497942,-0.33686165401333595,-0.6182422200172074,-0.10842229251278951,0.7932739996387184,-0.023795826158995195,0.5746979797979798,0.016524990238993273
1.3378123022259645,0.09848430047172721,-0.14216268378830527,-0.334751036959899,-0.6181740640313523,-0.1088674896681136,0.7914191508088407,-0.023760479058861833,0.5857919393939394,0.01699846608890824
1.3375951845490341,0.09900321669776053,-0.1423785564916317,-0.33264041990645665,-0.6181059080454969,-0.10931268682343885,0.7895643019789583,-0.02372513195872838,0.596885898989899,0.017481276883168192
1.3373780668721038,0.09952213292379386,-0.1425944291949581,-0.33052980285301425,-0.6180377520596416,-0.10975788397876408,0.7877094531490759,-0.02368978485859493,0.6079798585858586,0.017973422621771935
1.3371609491951733,0.1000410491498272,-0.1428103018982845,-0.3284191857995719,-0.6179695960737862,-0.11020308113408933,0.7858546043191935,-0.02365443775846148,0.6190738181818182,0.018474903304719473
1.336943831518243,0.10055996537586052,-0.14302617460161093,-0.32630856874612957,-0.6179014400879309,-0.11064827828941456,0.7839997554893111,-0.02361909065832803,0.6301677777777778,0.018985718932010797
1.336726713841313,0.10107888160189252,-0.14324204730493678,-0.3241979516926926,-0.6178332841020757,-0.11109347544473867,0.7821449066594335,-0.02358374355819467,0.6412617373737373,0.019505869503644566
1.3365095961643827,0.10159779782792586,-0.14345792000826318,-0.32208733463925027,-0.6177651281162204,-0.11153867260006392,0.7802900578295511,-0.023548396458061217,0.6523556969696969,0.020035355019623446
1.3362924784874524,0.10211671405395918,-0.14367379271158962,-0.3199767175858079,-0.6176969721303651,-0.11198386975538915,0.7784352089996687,-0.023513049357927765,0.6634496565656565,0.020574175479946118
1.3360753608105225,0.10263563027999117,-0.14388966541491546,-0.31786610053237097,-0.6176288161445099,-0.11242906691071325,0.7765803601697909,-0.023477702257794403,0.6745436161616161,0.021122330884611164
1.3358582431335921,0.1031545465060245,-0.14410553811824187,-0.31575548347892857,-0.6175606601586545,-0.1128742640660385,0.7747255113399085,-0.023442355157660952,0.6856375757575757,0.021679821233621388
1.3356411254566616,0.10367346273205783,-0.1443214108215683,-0.3136448664254862,-0.6174925041727992,-0.11331946122136374,0.7728706625100261,-0.023407008057527504,0.6967315353535353,0.022246646526975403
1.3354240077797317,0.10419237895808983,-0.14453728352489414,-0.3115342493720493,-0.617424348186944,-0.11376465837668784,0.7710158136801485,-0.023371660957394142,0.7078254949494949,0.022822806764671723
1.3352068901028014,0.10471129518412316,-0.14475315622822055,-0.3094236323186069,-0.6173561922010887,-0.11420985553201307,0.7691609648502661,-0.02333631385726069,0.7189194545454545,0.023408301946713297
1.334989772425871,0.10523021141015648,-0.14496902893154698,-0.3073130152651646,-0.6172880362152334,-0.11465505268733832,0.7673061160203837,-0.02330096675712724,0.7300134141414141,0.024003132073098656
1.3347726547489411,0.10574912763618849,-0.14518490163487283,-0.3052023982117276,-0.6172198802293782,-0.11510024984266241,0.765451267190506,-0.023265619656993877,0.7411073737373737,0.02460729714382625
1.3345555370720108,0.10626804386222181,-0.14540077433819923,-0.3030917811582853,-0.6171517242435228,-0.11554544699798766,0.7635964183606236,-0.02323027255686043,0.7522013333333333,0.025220797158899168
1.3343384193950802,0.10678696008825514,-0.14561664704152566,-0.30098116410484294,-0.6170835682576675,-0.1159906441533129,0.7617415695307412,-0.023194925456726977,0.7632952929292929,0.02584363211831587
1.33412130171815,0.10730587631428846,-0.14583251974485206,-0.2988705470514006,-0.6170154122718122,-0.11643584130863814,0.7598867207008588,-0.023159578356593526,0.7743892525252525,0.026475802022076368
1.3339041840412196,0.10782479254032179,-0.14604839244817847,-0.2967599299979582,-0.6169472562859568,-0.11688103846396339,0.7580318718709764,-0.023124231256460074,0.7854832121212121,0.027117306870180657
1.3336870663642897,0.1083437087663538,-0.14626426515150434,-0.29464931294452124,-0.6168791003001016,-0.11732623561928748,0.7561770230410987,-0.023088884156326712,0.7965771717171717,0.02776814666262705
1.3334699486873594,0.10886262499238712,-0.14648013785483074,-0.2925386958910789,-0.6168109443142463,-0.11777143277461272,0.7543221742112163,-0.02305353705619326,0.8076711313131313,0.0284283213994189
1.3332528310104288,0.10938154121842045,-0.14669601055815715,-0.29042807883763655,-0.616742788328391,-0.11821662992993796,0.7524673253813339,-0.02301818995605981,0.8187650909090909,0.029097831080554533
1.3330357133334991,0.10990045744445245,-0.14691188326148302,-0.2883174617841996,-0.6166746323425358,-0.11866182708526207,0.7506124765514562,-0.02298284285592645,0.8298590505050504,0.0297766757060322
1.3328185956565686,0.11041937367048578,-0.14712775596480943,-0.28620684473075725,-0.6166064763566805,-0.1191070242405873,0.7487576277215738,-0.022947495755793,0.84095301010101,0.030464855275855393
1.3326014779796382,0.1109382898965191,-0.14734362866813583,-0.2840962276773149,-0.6165383203708251,-0.11955222139591254,0.7469027788916914,-0.022912148655659548,0.8520469696969696,0.031162369790022362
1.3323843603027083,0.11145720612255111,-0.1475595013714617,-0.28198561062387795,-0.6164701643849699,-0.11999741855123665,0.7450479300618138,-0.022876801555526186,0.8631409292929292,0.031869219248531325
1.332167242625778,0.11197612234858442,-0.1477753740747881,-0.27987499357043555,-0.6164020083991146,-0.1204426157065619,0.7431930812319314,-0.022841454455392735,0.8742348888888888,0.032585403651385854
1.3319501249488477,0.11249503857461776,-0.14799124677811454,-0.27776437651699326,-0.6163338524132593,-0.12088781286188713,0.741338232402049,-0.022806107355259286,0.8853288484848484,0.033310922998584166
1.3317330072719178,0.11301395480064975,-0.14820711948144039,-0.2756537594635563,-0.6162656964274041,-0.12133301001721122,0.7394833835721714,-0.022770760255125925,0.896422808080808,0.03404577729012439
1.3315158895949872,0.11353287102668308,-0.1484229921847668,-0.2735431424101139,-0.6161975404415488,-0.12177820717253647,0.7376285347422888,-0.022735413154992473,0.9075167676767676,0.034789966526010276
1.331298771918057,0.11405178725271642,-0.1486388648880932,-0.2714325253566716,-0.6161293844556934,-0.12222340432786172,0.7357736859124064,-0.02270006605485902,0.9186107272727272,0.03554349070623994
1.3310816542411266,0.11457070347874974,-0.14885473759141962,-0.2693219083032292,-0.6160612284698381,-0.12266860148318695,0.733918837082524,-0.02266471895472557,0.9297046868686868,0.036306349830813406
1.3308645365641967,0.11508961970478174,-0.14907061029474547,-0.26721129124979226,-0.6159930724839829,-0.12311379863851105,0.7320639882526464,-0.02262937185459221,0.9407986464646464,0.037078543899728665
1.3306474188872663,0.11560853593081506,-0.1492864829980719,-0.2651006741963499,-0.6159249164981276,-0.1235589957938363,0.730209139422764,-0.02259402475445876,0.951892606060606,0.03786007291298968
1.3304303012103358,0.11612745215684839,-0.1495023557013983,-0.2629900571429076,-0.6158567605122722,-0.12400419294916154,0.7283542905928816,-0.02255867765432531,0.9629865656565656,0.03865093687059449
1.3302131835334055,0.11664636838288173,-0.1497182284047247,-0.2608794400894652,-0.6157886045264169,-0.12444939010448677,0.7264994417629992,-0.022523330554191857,0.9740805252525252,0.03945113577254308
1.3299960658564756,0.11716528460891372,-0.14993410110805058,-0.2587688230360282,-0.6157204485405617,-0.12489458725981087,0.7246445929331216,-0.022487983454058495,0.9851744848484848,0.04026066961883338
1.3297789481795452,0.11768420083494704,-0.15014997381137699,-0.2566582059825859,-0.6156522925547064,-0.1253397844151361,0.7227897441032392,-0.022452636353925044,0.9962684444444443,0.04107953840946954
1.329561830502615,0.11820311706098038,-0.1503658465147034,-0.25454758892914353,-0.615584136568851,-0.12578498157046136,0.7209348952733567,-0.022417289253791592,1.007362404040404,0.04190774214444947
1.329344712825685,0.11872203328701238,-0.15058171921802926,-0.2524369718757066,-0.615515980582996,-0.12623017872578546,0.719080046443479,-0.022381942153658234,1.0184563636363635,0.04274528082377105
1.3291275951487547,0.1192409495130457,-0.15079759192135567,-0.2503263548222642,-0.6154478245971405,-0.1266753758811107,0.7172251976135966,-0.022346595053524782,1.029550323232323,0.043592154447438546
1.3289104774718241,0.11975986573907904,-0.15101346462468207,-0.24821573776882186,-0.6153796686112852,-0.12712057303643592,0.7153703487837142,-0.02231124795339133,1.0406442828282827,0.044448363015449834
1.3286933597948942,0.12027878196511102,-0.15122933732800795,-0.24610512071538493,-0.61531151262543,-0.12756577019176005,0.7135154999538366,-0.02227590085325797,1.0517382424242423,0.04531390652780268
1.328476242117964,0.12079769819114436,-0.15144521003133435,-0.24399450366194256,-0.6152433566395747,-0.12801096734708528,0.7116606511239542,-0.022240553753124517,1.062832202020202,0.046188784984501526
1.3282591244410336,0.12131661441717768,-0.15166108273466075,-0.24188388660850021,-0.6151752006537193,-0.1284561645024105,0.7098058022940718,-0.022205206652991066,1.0739261616161615,0.04707299838554416
1.3280420067641037,0.12183553064320968,-0.15187695543798663,-0.23977326955506326,-0.6151070446678643,-0.12890136165773464,0.7079509534641941,-0.022169859552857708,1.085020121212121,0.04796654673092828
1.3278248890871733,0.12235444686924302,-0.15209282814131303,-0.2376626525016209,-0.6150388886820088,-0.12934655881305984,0.7060961046343117,-0.022134512452724256,1.0961140808080807,0.048869430020658466
1.3276077714102428,0.12287336309527634,-0.15230870084463943,-0.23555203544817854,-0.6149707326961535,-0.1297917559683851,0.7042412558044293,-0.022099165352590804,1.1072080404040403,0.04978164825473245
1.3273906537333124,0.12339227932130967,-0.15252457354796586,-0.2334414183947362,-0.6149025767102982,-0.13023695312371034,0.7023864069745469,-0.022063818252457353,1.118302,0.05070320143315021
1.3723148262042735,0.05033488108216055,-0.14041969187129774,-0.45163983559616927,-0.6066902253188825,-0.08830164851844188,0.8883173636104852,-0.023915669592127913,0.02,0.004734424247167147
1.3716815619124592,0.0506860475007738,-0.1408144182829631,-0.45147172502428573,-0.6057411615746756,-0.08782248207181,0.887414526493373,-0.023932348952871593,0.031093959595959595,0.004801320201293297
1.3710482976206433,0.05103721391938795,-0.1412091446946295,-0.45130361445240175,-0.6047920978304664,-0.08734331562517689,0.8865116893762585,-0.023949028313615315,0.04218791919191919,0.004880733632226064
1.3704150333288272,0.0513883803380021,-0.14160387110629588,-0.45113550388051776,-0.6038430340862571,-0.08686414917854378,0.885608852259144,-0.023965707674359033,0.05328187878787878,0.004972664539965292
1.3697817690370129,0.05173954675661535,-0.14199859751796126,-0.45096739330863417,-0.6028939703420502,-0.0863849827319119,0.8847060151420318,-0.023982387035102713,0.06437583838383838,0.005077112924510699
1.369148504745197,0.0520907131752295,-0.14239332392962764,-0.4507992827367502,-0.601944906597841,-0.0859058162852788,0.8838031780249174,-0.023999066395846435,0.07546979797979797,0.005194078785862818
1.3685152404533811,0.05244187959384365,-0.14278805034129402,-0.4506311721648662,-0.6009958428536316,-0.08542664983864569,0.8829003409078028,-0.024015745756590153,0.08656375757575757,0.0053235621240213995
1.3678819761615668,0.05279304601245691,-0.1431827767529594,-0.45046306159298266,-0.6000467791094247,-0.0849474833920138,0.8819975037906906,-0.024032425117333833,0.09765771717171716,0.005465562938986063
1.367248711869751,0.05314421243107106,-0.1435775031646258,-0.4502949510210987,-0.5990977153652155,-0.08446831694538069,0.8810946666735762,-0.024049104478077555,0.10875167676767676,0.005620081230757535
1.3666154475779348,0.05349537884968521,-0.1439722295762922,-0.4501268404492147,-0.5981486516210062,-0.08398915049874758,0.8801918295564617,-0.024065783838821277,0.11984563636363636,0.005787116999335469
1.365982183286119,0.05384654526829936,-0.14436695598795857,-0.4499587298773307,-0.5971995878767968,-0.08350998405211447,0.8792889924393472,-0.024082463199564995,0.13093959595959595,0.0059666702447198645
1.365348918994303,0.05419771168691351,-0.14476168239962495,-0.4497906193054467,-0.5962505241325876,-0.08303081760548137,0.8783861553222326,-0.024099142560308717,0.14203355555555552,0.006158740966910722
1.3647156547024888,0.054548878105526756,-0.14515640881129033,-0.4496225087335632,-0.5953014603883807,-0.08255165115884949,0.8774833182051205,-0.024115821921052397,0.15312751515151513,0.006363329165907501
1.364082390410673,0.054900044524140906,-0.1455511352229567,-0.4494543981616792,-0.5943523966441714,-0.08207248471221638,0.876580481088006,-0.024132501281796115,0.16422147474747473,0.006580434841711249
1.3634491261188568,0.05525121094275506,-0.14594586163462311,-0.44928628758979516,-0.5934033328999622,-0.08159331826558328,0.8756776439708915,-0.024149180642539837,0.1753154343434343,0.00681005799432146
1.3628158618270427,0.05560237736136831,-0.14634058804628847,-0.4491181770179116,-0.5924542691557553,-0.0811141518189514,0.8747748068537793,-0.024165860003283517,0.1864093939393939,0.007052198623737495
1.3621825975352266,0.05595354377998246,-0.14673531445795487,-0.44895006644602764,-0.5915052054115459,-0.08063498537231828,0.8738719697366648,-0.024182539364027235,0.1975033535353535,0.007306856729960596
1.3615493332434108,0.05630471019859661,-0.14713004086962125,-0.44878195587414366,-0.5905561416673367,-0.08015581892568518,0.8729691326195503,-0.024199218724770957,0.2085973131313131,0.0075740323129901595
1.3609160689515964,0.05665587661720986,-0.14752476728128663,-0.4486138453022601,-0.5896070779231298,-0.0796766524790533,0.8720662955024382,-0.024215898085514637,0.2196912727272727,0.007853725372825452
1.3602828046597806,0.05700704303582401,-0.147919493692953,-0.44844573473037613,-0.5886580141789206,-0.07919748603242019,0.8711634583853237,-0.024232577446258355,0.23078523232323228,0.008145935909467905
1.3596495403679647,0.05735820945443816,-0.1483142201046194,-0.44827762415849215,-0.5877089504347113,-0.07871831958578708,0.8702606212682091,-0.024249256807002077,0.24187919191919188,0.008450663922916822
1.3590162760761504,0.057709375873051416,-0.14870894651628477,-0.44810951358660855,-0.5867598866905044,-0.07823915313915521,0.869357784151097,-0.024265936167745757,0.2529731515151515,0.00876790941317137
1.3583830117843343,0.05806054229166556,-0.14910367292795118,-0.44794140301472457,-0.5858108229462952,-0.0777599866925221,0.8684549470339825,-0.02428261552848948,0.2640671111111111,0.009097672380233176
1.3577497474925184,0.05841170871027972,-0.14949839933961756,-0.4477732924428406,-0.5848617592020858,-0.07728082024588899,0.867552109916868,-0.024299294889233197,0.2751610707070707,0.009439952824101445
1.357116483200704,0.058762875128892965,-0.14989312575128294,-0.44760518187095705,-0.5839126954578789,-0.0768016537992571,0.8666492727997558,-0.024315974249976877,0.2862550303030303,0.00979475074477525
1.3564832189088882,0.059114041547507115,-0.15028785216294932,-0.44743707129907306,-0.5829636317136697,-0.076322487352624,0.8657464356826413,-0.0243326536107206,0.2973489898989899,0.010162066142256409
1.3558499546170724,0.059465207966121265,-0.1506825785746157,-0.4472689607271891,-0.5820145679694604,-0.07584332090599089,0.8648435985655268,-0.024349332971464317,0.3084429494949495,0.01054189901654403
1.3552166903252563,0.059816374384735416,-0.15107730498628208,-0.4471008501553051,-0.581065504225251,-0.07536415445935779,0.8639407614484124,-0.024366012332208038,0.3195369090909091,0.010934249367638114
1.3545834260334404,0.060167540803349566,-0.1514720313979485,-0.4469327395834211,-0.5801164404810418,-0.07488498801272467,0.8630379243312979,-0.02438269169295176,0.33063086868686864,0.01133911719553866
1.353950161741626,0.060518707221962814,-0.15186675780961387,-0.4467646290115376,-0.5791673767368349,-0.0744058215660928,0.8621350872141856,-0.024399371053695437,0.34172482828282824,0.01175650250024458
1.3533168974498102,0.06086987364057697,-0.15226148422128025,-0.4465965184396536,-0.5782183129926256,-0.07392665511945969,0.8612322500970712,-0.024416050414439158,0.35281878787878784,0.012186405281758017
1.3526836331579943,0.061221040059191115,-0.15265621063294663,-0.4464284078677696,-0.5772692492484164,-0.07344748867282658,0.8603294129799567,-0.02443272977518288,0.36391274747474744,0.012628825540077913
1.35205036886618,0.06157220647780437,-0.153050937044612,-0.446260297295886,-0.5763201855042095,-0.0729683222261947,0.8594265758628445,-0.024449409135926557,0.37500670707070705,0.013083763275203091
1.351417104574364,0.06192337289641852,-0.15344566345627839,-0.446092186724002,-0.5753711217600002,-0.07248915577956158,0.85852373874573,-0.024466088496670278,0.38610066666666665,0.01355121848713588
1.350783840282548,0.06227453931503267,-0.1538403898679448,-0.44592407615211804,-0.5744220580157909,-0.07200998933292849,0.8576209016286155,-0.024482767857414,0.39719462626262625,0.014031191175875129
1.3501505759907337,0.06262570573364593,-0.15423511627961015,-0.4457559655802345,-0.573472994271584,-0.0715308228862966,0.8567180645115033,-0.02449944721815768,0.40828858585858585,0.014523681341419563
1.3495173116989179,0.06297687215226007,-0.15462984269127655,-0.4455878550083505,-0.5725239305273747,-0.07105165643966349,0.8558152273943889,-0.024516126578901398,0.41938254545454545,0.015028688983771708
1.348884047407102,0.06332803857087423,-0.15502456910294293,-0.44541974443646654,-0.5715748667831655,-0.07057248999303038,0.8549123902772744,-0.02453280593964512,0.430476505050505,0.015546214102930306
1.3482507831152877,0.06367920498948747,-0.1554192955146083,-0.445251633864583,-0.5706258030389586,-0.07009332354639851,0.8540095531601621,-0.0245494853003888,0.4415704646464646,0.016076256698894
1.3476175188234718,0.06403037140810162,-0.1558140219262747,-0.445083523292699,-0.5696767392947493,-0.0696141570997654,0.8531067160430477,-0.024566164661132518,0.4526644242424242,0.016618816771665493
1.3469842545316557,0.06438153782671577,-0.15620874833794107,-0.444915412720815,-0.56872767555054,-0.06913499065313229,0.8522038789259332,-0.02458284402187624,0.4637583838383838,0.01717389432124345
1.3463509902398398,0.06473270424532993,-0.15660347474960745,-0.444747302148931,-0.5677786118063307,-0.06865582420649918,0.8513010418088187,-0.02459952338261996,0.4748523434343434,0.017741489347627867
1.345717725948024,0.06508387066394408,-0.15699820116127386,-0.444579191577047,-0.5668295480621215,-0.06817665775986607,0.8503982046917042,-0.024616202743363683,0.485946303030303,0.018321601850818745
1.3450844616562097,0.06543503708255732,-0.15739292757293924,-0.44441108100516347,-0.5658804843179146,-0.06769749131323419,0.849495367574592,-0.02463288210410736,0.4970402626262626,0.018914231830814553
1.3444511973643938,0.06578620350117148,-0.15778765398460562,-0.4442429704332795,-0.5649314205737053,-0.06721832486660108,0.8485925304574775,-0.02464956146485108,0.5081342222222222,0.01951937928761832
1.3438179330725777,0.06613736991978562,-0.158182380396272,-0.4440748598613955,-0.5639823568294959,-0.06673915841996797,0.847689693340363,-0.024666240825594803,0.5192281818181818,0.020137044221228553
1.3431846687807634,0.06648853633839888,-0.15857710680793738,-0.44390674928951196,-0.5630332930852892,-0.0662599919733361,0.8467868562232509,-0.02468292018633848,0.5303221414141414,0.020767226631643616
1.3425514044889475,0.06683970275701304,-0.15897183321960376,-0.443738638717628,-0.5620842293410798,-0.06578082552670299,0.8458840191061363,-0.0246995995470822,0.541416101010101,0.02140992651886674
1.3419181401971316,0.06719086917562718,-0.15936655963127017,-0.443570528145744,-0.5611351655968706,-0.06530165908006988,0.8449811819890218,-0.024716278907825923,0.5525100606060606,0.022065143882896324
1.3412848759053173,0.06754203559424043,-0.15976128604293552,-0.4434024175738604,-0.5601861018526637,-0.064822492633438,0.8440783448719097,-0.0247329582685696,0.5636040202020202,0.022732878723730646
1.3406516116135014,0.06789320201285458,-0.16015601245460193,-0.4432343070019764,-0.5592370381084544,-0.0643433261868049,0.8431755077547952,-0.02474963762931332,0.5746979797979798,0.02341313104137312
1.3400183473216853,0.06824436843146874,-0.1605507388662683,-0.44306619643009243,-0.558287974364245,-0.06386415974017179,0.8422726706376806,-0.024766316990057043,0.5857919393939394,0.024105900835822064
1.339385083029871,0.06859553485008198,-0.16094546527793369,-0.4428980858582089,-0.5573389106200383,-0.0633849932935399,0.8413698335205685,-0.02478299635080072,0.596885898989899,0.024811188107075634
1.3387518187380552,0.06894670126869613,-0.16134019168960007,-0.4427299752863249,-0.5563898468758289,-0.06290582684690679,0.840466996403454,-0.02479967571154444,0.6079798585858586,0.025528992855137465
1.3381185544462393,0.06929786768731028,-0.16173491810126644,-0.4425618647144409,-0.5554407831316197,-0.062426660400273684,0.8395641592863395,-0.024816355072288163,0.6190738181818182,0.026259315080005754
1.3374852901544234,0.06964903410592443,-0.16212964451293285,-0.44239375414255694,-0.5544917193874104,-0.061947493953640576,0.8386613221692251,-0.024833034433031885,0.6301677777777778,0.027002154781680505
1.3368520258626075,0.07000020052453858,-0.16252437092459923,-0.44222564357067295,-0.553542655643201,-0.061468327507007474,0.8377584850521105,-0.024849713793775603,0.6412617373737373,0.027757511960161713
1.3362187615707932,0.07035136694315183,-0.1629190973362646,-0.4420575329987894,-0.5525935918989943,-0.060989161060375593,0.8368556479349983,-0.024866393154519283,0.6523556969696969,0.02852538661544741
1.3355854972789771,0.07070253336176599,-0.163313823747931,-0.44188942242690543,-0.5516445281547849,-0.060509994613742485,0.8359528108178839,-0.024883072515263005,0.6634496565656565,0.029305778747541516
1.3349522329871613,0.07105369978038013,-0.16370855015959737,-0.4417213118550214,-0.5506954644105756,-0.060030828167109376,0.8350499737007694,-0.024899751876006727,0.6745436161616161,0.030098688356442083
1.334318968695347,0.07140486619899339,-0.16410327657126275,-0.44155320128313785,-0.5497464006663688,-0.059551661720477496,0.8341471365836571,-0.024916431236750403,0.6856375757575757,0.03090411544214703
1.333685704403531,0.07175603261760753,-0.16449800298292913,-0.44138509071125387,-0.5487973369221595,-0.05907249527384439,0.8332442994665427,-0.024933110597494125,0.6967315353535353,0.031722060004660484
1.3330524401117152,0.07210719903622169,-0.16489272939459554,-0.4412169801393699,-0.5478482731779502,-0.05859332882721128,0.8323414623494282,-0.024949789958237847,0.7078254949494949,0.0325525220439804
1.3324191758199009,0.07245836545483494,-0.1652874558062609,-0.44104886956748635,-0.5468992094337434,-0.0581141623805794,0.831438625232316,-0.024966469318981523,0.7189194545454545,0.03339550156010461
1.3317859115280848,0.07280953187344909,-0.1656821822179273,-0.44088075899560236,-0.545950145689534,-0.05763499593394629,0.8305357881152016,-0.024983148679725245,0.7300134141414141,0.03425099855303742
1.331152647236269,0.07316069829206323,-0.16607690862959368,-0.4407126484237184,-0.5450010819453247,-0.05715582948731318,0.829632950998087,-0.024999828040468967,0.7411073737373737,0.035119013022776695
1.3305193829444546,0.0735118647106765,-0.16647163504125906,-0.4405445378518348,-0.5440520182011179,-0.0566766630406813,0.8287301138809748,-0.025016507401212643,0.7522013333333333,0.03599954496932016
1.3298861186526387,0.07386303112929064,-0.16686636145292544,-0.4403764272799508,-0.5431029544569086,-0.05619749659404819,0.8278272767638604,-0.025033186761956365,0.7632952929292929,0.03689259439267232
1.3292528543608229,0.07421419754790479,-0.16726108786459182,-0.4402083167080668,-0.5421538907126993,-0.055718330147415084,0.8269244396467459,-0.025049866122700087,0.7743892525252525,0.037798161292830944
1.3286195900690085,0.07456536396651804,-0.1676558142762572,-0.4400402061361833,-0.5412048269684925,-0.0552391637007832,0.8260216025296336,-0.025066545483443763,0.7854832121212121,0.03871624566979366
1.3279863257771924,0.0749165303851322,-0.16805054068792358,-0.4398720955642993,-0.5402557632242831,-0.054759997254150095,0.8251187654125192,-0.025083224844187485,0.7965771717171717,0.03964684752356518
1.3273530614853766,0.07526769680374634,-0.16844526709958996,-0.4397039849924153,-0.5393066994800738,-0.05428083080751699,0.8242159282954047,-0.025099904204931207,0.8076711313131313,0.04058996685414315
1.3267197971935607,0.0756188632223605,-0.16883999351125636,-0.4395358744205313,-0.5383576357358646,-0.053801664360883884,0.8233130911782902,-0.02511658356567493,0.8187650909090909,0.04154560366152759
1.3260865329017448,0.07597002964097464,-0.16923471992292274,-0.43936776384864734,-0.5374085719916553,-0.05332249791425077,0.8224102540611757,-0.025133262926418647,0.8298590505050504,0.042513757945718496
1.3254532686099305,0.0763211960595879,-0.16962944633458812,-0.4391996532767638,-0.5364595082474484,-0.05284333146761889,0.8215074169440635,-0.025149942287162327,0.84095301010101,0.043494429706713335
1.3248200043181146,0.07667236247820204,-0.1700241727462545,-0.4390315427048798,-0.5355104445032391,-0.05236416502098579,0.820604579826949,-0.02516662164790605,0.8520469696969696,0.04448761894451712
1.3241867400262985,0.0770235288968162,-0.1704188991579209,-0.43886343213299583,-0.5345613807590298,-0.05188499857435268,0.8197017427098345,-0.025183301008649767,0.8631409292929292,0.04549332565912737
1.3235534757344842,0.07737469531542945,-0.1708136255695863,-0.43869532156111224,-0.5336123170148229,-0.05140583212772079,0.8187989055927224,-0.025199980369393447,0.8742348888888888,0.04651154985054147
1.3229202114426684,0.0777258617340436,-0.17120835198125267,-0.43852721098922826,-0.5326632532706137,-0.05092666568108768,0.8178960684756078,-0.02521665973013717,0.8853288484848484,0.047542291518764615
1.3222869471508525,0.07807702815265774,-0.17160307839291905,-0.43835910041734427,-0.5317141895264044,-0.05044749923445458,0.8169932313584933,-0.025233339090880887,0.896422808080808,0.048585550663794205
1.3216536828590382,0.078428194571271,-0.17199780480458443,-0.43819098984546073,-0.5307651257821975,-0.0499683327878227,0.8160903942413812,-0.025250018451624567,0.9075167676767676,0.04964132728562756
1.3210204185672223,0.07877936098988515,-0.1723925312162508,-0.43802287927357675,-0.5298160620379883,-0.04948916634118959,0.8151875571242667,-0.02526669781236829,0.9186107272727272,0.050709621384270064
1.3203871542754062,0.0791305274084993,-0.1727872576279172,-0.43785476870169276,-0.5288669982937789,-0.04900999989455648,0.8142847200071521,-0.025283377173112007,0.9297046868686868,0.051790432959719024
1.3197538899835919,0.07948169382711255,-0.17318198403958257,-0.4376866581298092,-0.5279179345495721,-0.0485308334479246,0.81338188289004,-0.025300056533855687,0.9407986464646464,0.052883762011971626
1.319120625691776,0.0798328602457267,-0.17357671045124895,-0.4375185475579252,-0.5269688708053628,-0.048051667001291494,0.8124790457729255,-0.02531673589459941,0.951892606060606,0.053989608541033476
1.3184873613999601,0.08018402666434085,-0.17397143686291536,-0.4373504369860412,-0.5260198070611535,-0.047572500554658385,0.811576208655811,-0.025333415255343127,0.9629865656565656,0.055107972546901786
1.3178540971081443,0.08053519308295501,-0.17436616327458174,-0.4371823264141572,-0.5250707433169441,-0.04709333410802528,0.8106733715386966,-0.02535009461608685,0.9740805252525252,0.05623885402957656
1.3172208328163282,0.08088635950156915,-0.17476088968624812,-0.43701421584227323,-0.5241216795727349,-0.04661416766139217,0.809770534421582,-0.02536677397683057,0.9851744848484848,0.0573822529890578
1.3165875685245139,0.08123752592018241,-0.1751556160979135,-0.4368461052703897,-0.523172615828528,-0.04613500121476029,0.8088676973044698,-0.02538345333757425,0.9962684444444443,0.05853816942534251
1.315954304232698,0.08158869233879655,-0.17555034250957988,-0.4366779946985057,-0.5222235520843188,-0.04565583476812718,0.8079648601873554,-0.02540013269831797,1.007362404040404,0.059706603338436644
1.3153210399408821,0.08193985875741071,-0.17594506892124628,-0.43650988412662173,-0.5212744883401095,-0.04517666832149407,0.8070620230702409,-0.02541681205906169,1.0184563636363635,0.060887554728337234
1.3146877756490678,0.08229102517602396,-0.17633979533291164,-0.4363417735547382,-0.5203254245959026,-0.0446975018748622,0.8061591859531287,-0.02543349141980537,1.029550323232323,0.0620810235950412
1.314054511357252,0.0826421915946381,-0.17673452174457804,-0.4361736629828542,-0.5193763608516934,-0.04421833542822909,0.8052563488360142,-0.02545017078054909,1.0406442828282827,0.06328700993855468
1.3134212470654358,0.08299335801325225,-0.17712924815624442,-0.4360055524109702,-0.518427297107484,-0.04373916898159597,0.8043535117188997,-0.02546685014129281,1.0517382424242423,0.06450551375887462
1.3127879827736217,0.0833445244318655,-0.1775239745679098,-0.4358374418390866,-0.5174782333632771,-0.0432600025349641,0.8034506746017875,-0.02548352950203649,1.062832202020202,0.06573653505599786
1.3121547184818056,0.08369569085047965,-0.17791870097957618,-0.43566933126720264,-0.5165291696190679,-0.04278083608833099,0.8025478374846731,-0.02550020886278021,1.0739261616161615,0.06698007382993068
1.3115214541899898,0.0840468572690938,-0.17831342739124256,-0.43550122069531866,-0.5155801058748586,-0.04230166964169788,0.8016450003675586,-0.02551688822352393,1.085020121212121,0.06823613008066998
1.3108881898981755,0.08439802368770706,-0.17870815380290794,-0.4353331101234351,-0.5146310421306517,-0.041822503195065995,0.8007421632504463,-0.02553356758426761,1.0961140808080807,0.06950470380821247
1.3102549256063596,0.0847491901063212,-0.17910288021457432,-0.43516499955155113,-0.5136819783864425,-0.04134333674843289,0.7998393261333319,-0.02555024694501133,1.1072080404040403,0.07078579501256464
1.3096216613145437,0.08510035652493536,-0.1794976066262407,-0.43499688897966715,-0.5127329146422331,-0.040864170301799785,0.7989364890162174,-0.02556692630575505,1.118302,0.0720794036937233
1.3915428572345585,0.0471804187730797,-0.13080765999648045,-0.4649631745281445,-0.6267818412582636,-0.08638916667676662,0.8981959976155012,-0.027977431163483973,0.02,0.004795772461346908
1.3910293824389253,0.04761272447135877,-0.1310517456296254,-0.4664939317601058,-0.6248910295366626,-0.08601712051522173,0.8977851592377452,-0.02797343870641364,0.031093959595959595,0.004814898554640567
1.3905159076432907,0.048045030169638944,-0.131295831262771,-0.46802468899207095,-0.6230002178150567,-0.0856450743536759,0.8973743208599883,-0.02796944624934329,0.04218791919191919,0.00483992001530751
1.3900024328476561,0.04847733586791912,-0.1315399168959166,-0.4695554462240361,-0.6211094060934508,-0.08527302819213006,0.8969634824822312,-0.027965453792272946,0.05328187878787878,0.0048708368433476945
1.3894889580520229,0.04890964156619819,-0.13178400252906156,-0.4710862034559974,-0.6192185943718497,-0.08490098203058517,0.8965526441044753,-0.027961461335202612,0.06437583838383838,0.004907649038761019
1.3889754832563885,0.04934194726447836,-0.13202808816220715,-0.47261696068796255,-0.6173277826502438,-0.08452893586903934,0.8961418057267183,-0.027957468878132267,0.07546979797979797,0.004950356601547671
1.388462008460754,0.04977425296275854,-0.13227217379535275,-0.4741477179199277,-0.6154369709286379,-0.0841568897074935,0.8957309673489614,-0.027953476421061923,0.08656375757575757,0.004998959531707566
1.3879485336651194,0.050206558661038715,-0.13251625942849835,-0.4756784751518929,-0.613546159207032,-0.08378484354594767,0.8953201289712044,-0.027949483963991575,0.09765771717171716,0.005053457829240702
1.3874350588694848,0.050638864359318886,-0.13276034506164394,-0.47720923238385804,-0.611655347485426,-0.08341279738440184,0.8949092905934474,-0.02794549150692123,0.10875167676767676,0.00511385149414708
1.3869215840738516,0.05107117005759795,-0.1330044306947889,-0.4787399896158193,-0.609764535763825,-0.08304075122285695,0.8944984522156915,-0.027941499049850896,0.11984563636363636,0.005180140526426522
1.3864081092782172,0.05150347575587813,-0.1332485163279345,-0.4802707468477845,-0.6078737240422192,-0.08266870506131112,0.8940876138379346,-0.02793750659278055,0.13093959595959595,0.005252324926079369
1.3858946344825827,0.05193578145415831,-0.1334926019610801,-0.48180150407974964,-0.6059829123206132,-0.08229665889976528,0.8936767754601775,-0.027933514135710207,0.14203355555555552,0.005330404693105457
1.3853811596869494,0.052368087152437376,-0.13373668759422505,-0.4833322613117109,-0.6040921005990122,-0.0819246127382204,0.8932659370824216,-0.02792952167863987,0.15312751515151513,0.0054143798275045635
1.3848676848913148,0.052800392850717554,-0.13398077322737065,-0.4848630185436761,-0.6022012888774063,-0.08155256657667456,0.8928550987046646,-0.027925529221569524,0.16422147474747473,0.00550425032927712
1.3843542100956803,0.053232698548997724,-0.13422485886051624,-0.48639377577564125,-0.6003104771558003,-0.08118052041512873,0.8924442603269076,-0.02792153676449918,0.1753154343434343,0.005600016198422919
1.3838407353000473,0.05366500424727679,-0.1344689444936612,-0.4879245330076025,-0.5984196654341993,-0.08080847425358385,0.8920334219491517,-0.027917544307428845,0.1864093939393939,0.005701677434941691
1.3833272605044127,0.05409730994555697,-0.1347130301268068,-0.4894552902395677,-0.5965288537125933,-0.080436428092038,0.8916225835713948,-0.027913551850358497,0.1975033535353535,0.005809234038833957
1.382813785708778,0.05452961564383714,-0.1349571157599524,-0.49098604747153285,-0.5946380419909875,-0.08006438193049217,0.8912117451936378,-0.027909559393288152,0.2085973131313131,0.0059226860100994655
1.3823003109131449,0.054961921342116214,-0.13520120139309735,-0.49251680470349407,-0.5927472302693865,-0.0796923357689473,0.8908009068158819,-0.027905566936217818,0.2196912727272727,0.006042033348737902
1.3817868361175103,0.055394227040396385,-0.13544528702624295,-0.4940475619354593,-0.5908564185477805,-0.07932028960740146,0.8903900684381248,-0.027901574479147474,0.23078523232323228,0.006167276054749879
1.381273361321876,0.05582653273867656,-0.13568937265938855,-0.49557831916742445,-0.5889656068261746,-0.07894824344585563,0.8899792300603678,-0.02789758202207713,0.24187919191919188,0.006298414128135097
1.3807598865262414,0.05625883843695674,-0.13593345829253414,-0.4971090763993896,-0.5870747951045687,-0.07857619728430978,0.8895683916826109,-0.02789358956500678,0.2529731515151515,0.006435447568893558
1.3802464117306068,0.05669114413523691,-0.13617754392567974,-0.4986398336313548,-0.5851839833829628,-0.07820415112276395,0.8891575533048539,-0.027889597107936436,0.2640671111111111,0.0065783763770252595
1.3797329369349736,0.057123449833515985,-0.1364216295588247,-0.5001705908633161,-0.5832931716613617,-0.07783210496121908,0.888746714927098,-0.027885604650866102,0.2751610707070707,0.0067272005525298145
1.379219462139339,0.057555755531796156,-0.1366657151919703,-0.5017013480952812,-0.5814023599397559,-0.07746005879967324,0.888335876549341,-0.027881612193795757,0.2862550303030303,0.006881920095407984
1.3787059873437046,0.05798806123007633,-0.1369098008251159,-0.5032321053272464,-0.5795115482181499,-0.0770880126381274,0.8879250381715841,-0.027877619736725413,0.2973489898989899,0.0070425350056593965
1.3781925125480714,0.0584203669283554,-0.13715388645826085,-0.5047628625592077,-0.5776207364965489,-0.07671596647658252,0.8875141997938282,-0.027873627279655075,0.3084429494949495,0.007209045283283616
1.3776790377524368,0.05885267262663557,-0.13739797209140645,-0.5062936197911728,-0.575729924774943,-0.07634392031503669,0.8871033614160712,-0.02786963482258473,0.3195369090909091,0.007381450928281496
1.3771655629568023,0.05928497832491575,-0.13764205772455204,-0.507824377023138,-0.573839113053337,-0.07597187415349085,0.8866925230383141,-0.027865642365514386,0.33063086868686864,0.007559751940652618
1.376652088161169,0.05971728402319482,-0.137886143357697,-0.5093551342550993,-0.571948301331736,-0.07559982799194596,0.8862816846605582,-0.02786164990844405,0.34172482828282824,0.007743948320396503
1.3761386133655344,0.060149589721474994,-0.1381302289908426,-0.5108858914870644,-0.5700574896101301,-0.07522778183040013,0.8858708462828012,-0.027857657451373703,0.35281878787878784,0.007934040067514093
1.3756251385699,0.06058189541975517,-0.1383743146239882,-0.5124166487190296,-0.5681666778885242,-0.0748557356688543,0.8854600079050443,-0.02785366499430336,0.36391274747474744,0.008130027182004926
1.3751116637742669,0.06101420111803424,-0.13861840025713315,-0.5139474059509908,-0.5662758661669232,-0.07448368950730941,0.8850491695272884,-0.027849672537233024,0.37500670707070705,0.008331909663868474
1.3745981889786323,0.06144650681631442,-0.13886248589027875,-0.515478163182956,-0.5643850544453172,-0.07411164334576358,0.8846383311495314,-0.02784568008016268,0.38610066666666665,0.008539687513105776
1.3740847141829977,0.06187881251459459,-0.13910657152342434,-0.5170089204149212,-0.5624942427237113,-0.07373959718421774,0.8842274927717744,-0.027841687623092335,0.39719462626262625,0.008753360729716317
1.3735712393873645,0.062311118212873655,-0.1393506571565693,-0.5185396776468825,-0.5606034310021102,-0.07336755102267285,0.8838166543940185,-0.027837695166021997,0.40828858585858585,0.008972929313699533
1.3730577645917301,0.06274342391115384,-0.1395947427897149,-0.5200704348788476,-0.5587126192805043,-0.07299550486112702,0.8834058160162614,-0.027833702708951653,0.41938254545454545,0.009198393265056542
1.3725442897960956,0.063175729609434,-0.1398388284228605,-0.5216011921108128,-0.5568218075588984,-0.07262345869958119,0.8829949776385045,-0.027829710251881308,0.430476505050505,0.009429752583786796
1.372030815000461,0.06360803530771418,-0.1400829140560061,-0.523131949342778,-0.5549309958372926,-0.07225141253803535,0.8825841392607475,-0.027825717794810963,0.4415704646464646,0.009667007269890289
1.3715173402048264,0.06404034100599436,-0.1403269996891517,-0.5246627065747431,-0.5530401841156867,-0.07187936637648952,0.8821733008829906,-0.02782172533774062,0.4526644242424242,0.009910157323367023
1.3710038654091932,0.06447264670427343,-0.14057108532229665,-0.5261934638067043,-0.5511493723940856,-0.07150732021494463,0.8817624625052346,-0.02781773288067028,0.4637583838383838,0.010159202744216358
1.3704903906135588,0.0649049524025536,-0.14081517095544224,-0.5277242210386696,-0.5492585606724797,-0.0711352740533988,0.8813516241274777,-0.027813740423599936,0.4748523434343434,0.010414143532439562
1.3699769158179242,0.06533725810083378,-0.14105925658858784,-0.5292549782706347,-0.5473677489508737,-0.07076322789185296,0.8809407857497207,-0.02780974796652959,0.485946303030303,0.010674979688036008
1.369463441022291,0.06576956379911283,-0.1413033422217328,-0.530785735502596,-0.5454769372292727,-0.07039118173030809,0.8805299473719648,-0.027805755509459257,0.4970402626262626,0.010941711211005005
1.3689499662266564,0.06620186949739301,-0.1415474278548784,-0.5323164927345612,-0.5435861255076668,-0.07001913556876224,0.8801191089942078,-0.027801763052388913,0.5081342222222222,0.01121433810134792
1.3684364914310219,0.06663417519567319,-0.141791513488024,-0.5338472499665263,-0.5416953137860608,-0.06964708940721641,0.8797082706164508,-0.027797770595318565,0.5192281818181818,0.011492860359064074
1.3679230166353888,0.06706648089395226,-0.14203559912116895,-0.5353780071984875,-0.5398045020644598,-0.06927504324567152,0.8792974322386948,-0.02779377813824823,0.5303221414141414,0.011777277984152738
1.3674095418397543,0.06749878659223243,-0.14227968475431454,-0.5369087644304527,-0.5379136903428539,-0.06890299708412569,0.8788865938609379,-0.027789785681177886,0.541416101010101,0.012067590976615361
1.3668960670441197,0.06793109229051261,-0.14252377038746014,-0.5384395216624179,-0.536022878621248,-0.06853095092257985,0.8784757554831809,-0.02778579322410754,0.5525100606060606,0.012363799336451228
1.3663825922484865,0.06836339798879168,-0.1427678560206051,-0.5399702788943791,-0.534132066899647,-0.06815890476103498,0.878064917105425,-0.027781800767037203,0.5636040202020202,0.012665903063659554
1.3658691174528519,0.06879570368707186,-0.1430119416537507,-0.5415010361263443,-0.532241255178041,-0.06778685859948913,0.877654078727668,-0.02777780830996686,0.5746979797979798,0.012973902158241889
1.3653556426572175,0.06922800938535204,-0.1432560272868963,-0.5430317933583095,-0.5303504434564351,-0.0674148124379433,0.8772432403499111,-0.027773815852896514,0.5857919393939394,0.013287796620197466
1.364842167861583,0.06966031508363221,-0.1435001129200419,-0.5445625505902747,-0.5284596317348292,-0.06704276627639746,0.8768324019721541,-0.02776982339582617,0.596885898989899,0.013607586449526284
1.3643286930659484,0.07009262078191239,-0.14374419855318749,-0.5460933078222399,-0.5265688200132234,-0.06667072011485163,0.876421563594397,-0.027765830938755825,0.6079798585858586,0.013933271646228344
1.3638152182703152,0.07052492648019144,-0.14398828418633244,-0.547624065054201,-0.5246780082916223,-0.06629867395330674,0.8760107252166411,-0.027761838481685487,0.6190738181818182,0.014264852210302787
1.3633017434746806,0.07095723217847162,-0.14423236981947804,-0.5491548222861662,-0.5227871965700164,-0.06592662779176091,0.8755998868388842,-0.027757846024615142,0.6301677777777778,0.014602328141751317
1.3627882686790462,0.0713895378767518,-0.14447645545262364,-0.5506855795181315,-0.5208963848484105,-0.06555458163021508,0.8751890484611272,-0.027753853567544798,0.6412617373737373,0.014945699440573086
1.362274793883413,0.07182184357503087,-0.1447205410857686,-0.5522163367500926,-0.5190055731268094,-0.0651825354686702,0.8747782100833713,-0.027749861110474464,0.6523556969696969,0.015294966106767196
1.3617613190877784,0.07225414927331104,-0.1449646267189142,-0.5537470939820578,-0.5171147614052035,-0.06481048930712435,0.8743673717056143,-0.02774586865340412,0.6634496565656565,0.01565012814033543
1.3612478442921438,0.07268645497159122,-0.1452087123520598,-0.5552778512140231,-0.5152239496835975,-0.06443844314557852,0.8739565333278574,-0.02774187619633377,0.6745436161616161,0.016011185541276916
1.3607343694965106,0.07311876066987028,-0.14545279798520475,-0.5568086084459842,-0.5133331379619965,-0.06406639698403364,0.8735456949501014,-0.027737883739263437,0.6856375757575757,0.016378138309590687
1.3602208947008763,0.07355106636815045,-0.14569688361835034,-0.5583393656779494,-0.5114423262403907,-0.06369435082248781,0.8731348565723445,-0.027733891282193092,0.6967315353535353,0.016750986445278636
1.3597074199052417,0.07398337206643063,-0.14594096925149594,-0.5598701229099146,-0.5095515145187847,-0.06332230466094196,0.8727240181945874,-0.027729898825122747,0.7078254949494949,0.01712972994833983
1.3591939451096084,0.0744156777647097,-0.1461850548846409,-0.5614008801418758,-0.5076607027971837,-0.06295025849939709,0.8723131798168315,-0.027725906368052413,0.7189194545454545,0.017514368818773267
1.3586804703139739,0.07484798346298988,-0.1464291405177865,-0.562931637373841,-0.5057698910755777,-0.06257821233785126,0.8719023414390745,-0.027721913910982065,0.7300134141414141,0.017904903056580927
1.3581669955183393,0.07528028916127005,-0.1466732261509321,-0.5644623946058062,-0.5038790793539718,-0.06220616617630542,0.8714915030613176,-0.02771792145391172,0.7411073737373737,0.018301332661761822
1.357653520722705,0.07571259485955023,-0.1469173117840777,-0.5659931518377714,-0.5019882676323659,-0.06183412001475958,0.8710806646835606,-0.027713928996841376,0.7522013333333333,0.018703657634315966
1.3571400459270717,0.0761449005578293,-0.14716139741722264,-0.5675239090697326,-0.5000974559107649,-0.0614620738532147,0.8706698263058047,-0.02770993653977104,0.7632952929292929,0.019111877974242297
1.3566265711314371,0.07657720625610948,-0.14740548305036824,-0.5690546663016978,-0.49820664418915894,-0.061090027691668866,0.8702589879280477,-0.027705944082700693,0.7743892525252525,0.01952599368154291
1.3561130963358026,0.07700951195438965,-0.14764956868351384,-0.5705854235336629,-0.49631583246755306,-0.06071798153012303,0.8698481495502908,-0.02770195162563035,0.7854832121212121,0.01994600475621676
1.355599621540168,0.07744181765266983,-0.14789365431665943,-0.5721161807656281,-0.4944250207459472,-0.06034593536857719,0.8694373111725338,-0.027697959168560004,0.7965771717171717,0.020371911198263856
1.3550861467445348,0.0778741233509489,-0.1481377399498044,-0.5736469379975894,-0.4925342090243461,-0.05997388920703231,0.8690264727947778,-0.02769396671148967,0.8076711313131313,0.020803713007683074
1.3545726719489004,0.07830642904922908,-0.14838182558295,-0.5751776952295545,-0.4906433973027402,-0.05960184304548648,0.8686156344170208,-0.027689974254419325,0.8187650909090909,0.021241410184476638
1.3540591971532658,0.07873873474750925,-0.14862591121609559,-0.5767084524615198,-0.48875258558113427,-0.05922979688394064,0.8682047960392638,-0.027685981797348977,0.8298590505050504,0.021685002728643446
1.3535457223576326,0.07917104044578832,-0.14886999684924054,-0.578239209693481,-0.4868617738595332,-0.058857750722395755,0.8677939576615079,-0.027681989340278643,0.84095301010101,0.022134490640182327
1.353032247561998,0.0796033461440685,-0.14911408248238614,-0.5797699669254461,-0.4849709621379273,-0.05848570456084992,0.8673831192837509,-0.027677996883208298,0.8520469696969696,0.022589873919095605
1.3525187727663635,0.08003565184234866,-0.14935816811553174,-0.5813007241574113,-0.4830801504163214,-0.05811365839930409,0.866972280905994,-0.027674004426137953,0.8631409292929292,0.023051152565382114
1.3520052979707304,0.08046795754062773,-0.1496022537486767,-0.5828314813893726,-0.48118933869472036,-0.0577416122377592,0.8665614425282381,-0.02767001196906762,0.8742348888888888,0.02351832657904067
1.3514918231750959,0.0809002632389079,-0.1498463393818223,-0.5843622386213377,-0.4792985269731144,-0.057369566076213366,0.8661506041504811,-0.02766601951199727,0.8853288484848484,0.023991395960073648
1.3509783483794613,0.08133256893718807,-0.1500904250149679,-0.5858929958533029,-0.4774077152515085,-0.05699751991466753,0.865739765772724,-0.027662027054926926,0.896422808080808,0.024470360708479875
1.350464873583828,0.08176487463546714,-0.15033451064811287,-0.5874237530852642,-0.4755169035299075,-0.05662547375312265,0.8653289273949681,-0.027658034597856592,0.9075167676767676,0.02495522082425809
1.3499513987881935,0.08219718033374732,-0.15057859628125844,-0.5889545103172293,-0.47362609180830156,-0.05625342759157681,0.8649180890172112,-0.027654042140786247,0.9186107272727272,0.025445976307410783
1.3494379239925591,0.0826294860320275,-0.15082268191440404,-0.5904852675491945,-0.47173528008669563,-0.055881381430030984,0.8645072506394542,-0.027650049683715903,0.9297046868686868,0.025942627157936715
1.3489244491969246,0.08306179173030767,-0.15106676754754964,-0.5920160247811597,-0.46984446836508975,-0.055509335268485144,0.8640964122616972,-0.027646057226645555,0.9407986464646464,0.026445173375835893
1.34841097440129,0.08349409742858785,-0.15131085318069523,-0.5935467820131248,-0.4679536566434838,-0.055137289106939304,0.8636855738839403,-0.02764206476957521,0.951892606060606,0.026953614961108315
1.3478974996056567,0.08392640312686692,-0.1515549388138402,-0.5950775392450861,-0.46606284492188277,-0.05476524294539443,0.8632747355061843,-0.027638072312504876,0.9629865656565656,0.027467951913752644
1.3473840248100222,0.0843587088251471,-0.1517990244469858,-0.5966082964770513,-0.4641720332002769,-0.05439319678384859,0.8628638971284274,-0.02763407985543453,0.9740805252525252,0.027988184233771536
1.3468705500143878,0.08479101452342727,-0.15204311008013138,-0.5981390537090164,-0.462281221478671,-0.054021150622302755,0.8624530587506704,-0.027630087398364186,0.9851744848484848,0.02851431192116366
1.3463570752187546,0.08522332022170634,-0.15228719571327634,-0.5996698109409777,-0.4603904097570699,-0.05364910446075787,0.8620422203729144,-0.02762609494129385,0.9962684444444443,0.029046334975927658
1.34584360042312,0.08565562591998652,-0.15253128134642194,-0.6012005681729429,-0.45849959803546403,-0.05327705829921204,0.8616313819951574,-0.027622102484223504,1.007362404040404,0.029584253398066255
1.3453301256274854,0.0860879316182667,-0.15277536697956753,-0.602731325404908,-0.4566087863138581,-0.0529050121376662,0.8612205436174005,-0.02761811002715316,1.0184563636363635,0.030128067187578093
1.3448166508318522,0.08652023731654576,-0.1530194526127125,-0.6042620826368693,-0.45471797459225705,-0.05253296597612132,0.8608097052396446,-0.027614117570082825,1.029550323232323,0.030677776344461755
1.3443031760362179,0.08695254301482594,-0.1532635382458581,-0.6057928398688345,-0.4528271628706511,-0.052160919814575483,0.8603988668618876,-0.027610125113012477,1.0406442828282827,0.031233380868720063
1.3437897012405833,0.0873848487131061,-0.15350762387900369,-0.6073235971007996,-0.45093635114904523,-0.05178887365302965,0.8599880284841306,-0.027606132655942132,1.0517382424242423,0.03179488076035161
1.34327622644495,0.08781715441138517,-0.15375170951214867,-0.6088543543327609,-0.4490455394274442,-0.05141682749148476,0.8595771901063747,-0.027602140198871798,1.062832202020202,0.032362276019354944
1.3427627516493155,0.08824946010966535,-0.15399579514529424,-0.6103851115647261,-0.44715472770583825,-0.051044781329938935,0.8591663517286177,-0.027598147741801454,1.0739261616161615,0.03293556664573295
1.342249276853681,0.08868176580794553,-0.15423988077843984,-0.6119158687966912,-0.4452639159842323,-0.050672735168393095,0.8587555133508608,-0.02759415528473111,1.085020121212121,0.03351475263948421
1.3417358020580465,0.0891140715062257,-0.15448396641158543,-0.6134466260286564,-0.44337310426262644,-0.050300689006847255,0.8583446749731037,-0.02759016282766076,1.0961140808080807,0.03409983400060872
1.341222327262412,0.08954637720450587,-0.15472805204473103,-0.6149773832606216,-0.44148229254102056,-0.04992864284530142,0.8579338365953468,-0.027586170370590416,1.1072080404040403,0.03469081072910646
1.3407088524667787,0.08997868290278493,-0.154972137677876,-0.6165081404925828,-0.43959148081941946,-0.04955659668375654,0.8575229982175908,-0.027582177913520082,1.118302,0.03528768282497591
1.0254028365065166,0.09907351425030153,-0.21017621026172817,-0.338027606581541,-0.4592743323370332,-0.053243690247240606,0.8436271568660377,0.09261833180468695,0.02,0.003074351977922368
1.0234661882942822,0.10145354516755024,-0.2120067234665641,-0.3354886954617219,-0.4568038034036586,-0.05389089496121636,0.8397847316002964,0.09348565223103206,0.031093959595959595,0.0030890167754202055
1.0215295400820528,0.10383357608479286,-0.21383723667139537,-0.33294978434190925,-0.4543332744702904,-0.054538099675190445,0.8359423063345649,0.09435297265737494,0.04218791919191919,0.003125333815952376
1.0195928918698183,0.10621360700204159,-0.2156677498762313,-0.3304108732220902,-0.45186274553691586,-0.0551853043891662,0.8320998810688236,0.09522029308372006,0.05328187878787878,0.003183303099519066
1.0176562436575838,0.1085936379192903,-0.21749826308106726,-0.32787196210227104,-0.4493922166035413,-0.05583250910314194,0.8282574558030823,0.09608761351006516,0.06437583838383838,0.0032629246261202103
1.0157195954453517,0.11097366883653598,-0.21932877628590086,-0.3253330509824552,-0.4469216876701699,-0.05647971381711686,0.8244150305373459,0.09695493393640915,0.07546979797979797,0.003364198395755665
1.0137829472331197,0.11335369975378164,-0.22115928949073446,-0.32279413986263933,-0.4444511587367985,-0.05712691853109178,0.8205726052716095,0.09782225436275314,0.08656375757575757,0.003487124408425518
1.0118462990208852,0.11573373067103035,-0.2229898026955704,-0.3202552287428202,-0.44198062980342395,-0.05777412324506753,0.8167301800058682,0.09868957478909825,0.09765771717171716,0.003631702664129969
1.0099096508086531,0.11811376158827602,-0.22482031590040402,-0.31771631762300434,-0.43951010087005254,-0.05842132795904245,0.8128877547401318,0.09955689521544224,0.10875167676767676,0.0037979331628686473
1.007973002596421,0.1204937925055217,-0.22665082910523762,-0.3151774065031885,-0.43703957193668114,-0.05906853267301737,0.8090453294743953,0.10042421564178625,0.11984563636363636,0.003985815904641725
1.0060363543841866,0.12287382342277041,-0.22848134231007355,-0.31263849538336935,-0.4345690430033066,-0.059715737386993116,0.805202904208654,0.10129153606813135,0.13093959595959595,0.004195350889449482
1.004099706171952,0.12525385434001912,-0.2303118555149095,-0.3100995842635502,-0.43209851406993205,-0.06036294210096887,0.8013604789429127,0.10215885649447645,0.14203355555555552,0.004426538117291694
1.0021630579597203,0.1276338852572648,-0.23214236871974311,-0.30756067314373436,-0.42962798513656064,-0.06101014681494379,0.7975180536771763,0.10302617692082044,0.15312751515151513,0.004679377588168022
1.0002264097474882,0.13001391617451047,-0.23397288192457671,-0.3050217620239185,-0.42715745620318923,-0.06165735152891871,0.7936756284114399,0.10389349734716444,0.16422147474747473,0.004953869302078749
0.9982897615352537,0.13239394709175917,-0.23580339512941265,-0.3024828509040994,-0.4246869272698147,-0.06230455624289445,0.7898332031456986,0.10476081777350954,0.1753154343434343,0.005250013259024268
0.9963531133230217,0.13477397800900484,-0.23763390833424625,-0.2999439397842835,-0.4222163983364433,-0.06295176095686937,0.7859907778799622,0.10562813819985355,0.1864093939393939,0.005567809459003819
0.9944164651107896,0.13715400892625051,-0.23946442153907985,-0.29740502866446766,-0.4197458694030719,-0.06359896567084429,0.7821483526142258,0.10649545862619754,0.1975033535353535,0.00590725790201777
0.9924798168985551,0.13953403984349924,-0.2412949347439158,-0.29486611754464853,-0.41727534046969733,-0.06424617038482004,0.7783059273484845,0.10736277905254264,0.2085973131313131,0.006268358588066595
0.9905431686863206,0.14191407076074794,-0.24312544794875174,-0.2923272064248294,-0.4148048115363228,-0.0648933750987958,0.7744635020827432,0.10823009947888775,0.2196912727272727,0.0066511115171498745
0.9886065204740887,0.1442941016779936,-0.24495596115358534,-0.28978829530501354,-0.4123342826029514,-0.06554057981277071,0.7706210768170068,0.10909741990523175,0.23078523232323228,0.007055516689267077
0.9866698722618567,0.1466741325952393,-0.24678647435841894,-0.2872493841851977,-0.40986375366958,-0.06618778452674563,0.7667786515512703,0.10996474033157574,0.24187919191919188,0.007481574104418676
0.9847332240496222,0.149054163512488,-0.2486169875632549,-0.28471047306537856,-0.40739322473620543,-0.06683498924072137,0.762936226285529,0.11083206075792085,0.2529731515151515,0.007929283762605264
0.9827965758373902,0.15143419442973366,-0.25044750076808847,-0.2821715619455627,-0.4049226958028341,-0.06748219395469629,0.7590938010197926,0.11169938118426484,0.2640671111111111,0.008398645663825689
0.9808599276251582,0.15381422534697936,-0.2522780139729221,-0.27963265082574684,-0.40245216686946267,-0.06812939866867121,0.7552513757540562,0.11256670161060883,0.2751610707070707,0.008889659808080513
0.9789232794129237,0.15619425626422806,-0.25410852717775806,-0.2770937397059277,-0.3999816379360881,-0.06877660338264696,0.7514089504883149,0.11343402203695394,0.2862550303030303,0.009402326195370406
0.9769866312006892,0.15857428718147676,-0.25593904038259396,-0.2745548285861086,-0.3975111090027135,-0.06942380809662271,0.7475665252225736,0.11430134246329904,0.2973489898989899,0.009936644825694754
0.9750499829884571,0.16095431809872246,-0.2577695535874276,-0.2720159174662927,-0.3950405800693422,-0.07007101281059763,0.7437240999568372,0.11516866288964304,0.3084429494949495,0.01049261569905283
0.9731133347762252,0.1633343490159681,-0.2596000667922612,-0.26947700634647687,-0.39257005113597077,-0.07071821752457255,0.7398816746911008,0.11603598331598704,0.3195369090909091,0.011070238815445303
0.9711766865639907,0.16571437993321683,-0.2614305799970971,-0.26693809522665773,-0.3900995222025962,-0.0713654222385483,0.7360392494253595,0.11690330374233214,0.33063086868686864,0.011669514174872957
0.9692400383517586,0.1680944108504625,-0.26326109320193075,-0.2643991841068419,-0.38762899326922484,-0.07201262695252322,0.7321968241596231,0.11777062416867613,0.34172482828282824,0.012290441777334255
0.9673033901395266,0.17047444176770815,-0.2650916064067643,-0.261860272987026,-0.38515846433585343,-0.07265983166649814,0.7283543988938866,0.11863794459502014,0.35281878787878784,0.012933021622829954
0.9653667419272921,0.1728544726849569,-0.2669221196116003,-0.2593213618672069,-0.38268793540247886,-0.0733070363804739,0.7245119736281453,0.11950526502136524,0.36391274747474744,0.013597253711360915
0.9634300937150576,0.1752345036022056,-0.26875263281643624,-0.2567824507473878,-0.3802174064691043,-0.07395424109444963,0.720669548362404,0.12037258544771035,0.37500670707070705,0.01428313804292633
0.9614934455028257,0.17761453451945125,-0.2705831460212698,-0.25424353962757196,-0.3777468775357329,-0.07460144580842455,0.7168271230966676,0.12123990587405434,0.38610066666666665,0.014990674617525278
0.9595567972905936,0.17999456543669695,-0.27241365922610344,-0.25170462850775605,-0.3752763486023615,-0.07524865052239949,0.7129846978309312,0.12210722630039833,0.39719462626262625,0.01571986343515863
0.9576201490783591,0.18237459635394565,-0.2742441724309394,-0.24916571738793694,-0.37280581966898696,-0.07589585523637522,0.7091422725651899,0.12297454672674343,0.40828858585858585,0.01647070449582735
0.9556835008661271,0.18475462727119132,-0.276074685635773,-0.24662680626812106,-0.37033529073561555,-0.07654305995035014,0.7052998472994535,0.12384186715308743,0.41938254545454545,0.01724319779952952
0.9537468526538951,0.187134658188437,-0.2779051988406066,-0.2440878951483052,-0.36786476180224414,-0.07719026466432506,0.7014574220337171,0.12470918757943142,0.430476505050505,0.018037343346266093
0.9518102044416606,0.1895146891056857,-0.27973571204544256,-0.24154898402848607,-0.36539423286886963,-0.07783746937830081,0.6976149967679758,0.12557650800577652,0.4415704646464646,0.018853141136038122
0.9498735562294262,0.19189472002293442,-0.28156622525027847,-0.239010072908667,-0.36292370393549506,-0.07848467409227657,0.6937725715022345,0.12644382843212165,0.4526644242424242,0.019690591168844605
0.9479369080171941,0.1942747509401801,-0.28339673845511204,-0.2364711617888511,-0.36045317500212365,-0.07913187880625147,0.6899301462364981,0.12731114885846562,0.4637583838383838,0.020549693444684426
0.9460002598049622,0.19665478185742574,-0.28522725165994567,-0.23393225066903525,-0.3579826460687523,-0.07977908352022639,0.6860877209707616,0.12817846928480964,0.4748523434343434,0.021430447963558644
0.9440636115927276,0.1990348127746745,-0.28705776486478163,-0.23139333954921612,-0.35551211713537767,-0.08042628823420214,0.6822452957050203,0.12904578971115474,0.485946303030303,0.022332854725468438
0.9421269633804956,0.20141484369192014,-0.28888827806961526,-0.22885442842940026,-0.3530415882020063,-0.08107349294817706,0.6784028704392839,0.12991311013749873,0.4970402626262626,0.023256913730411485
0.9401903151682636,0.20379487460916582,-0.29071879127444883,-0.22631551730958438,-0.3505710592686349,-0.08172069766215198,0.6745604451735475,0.13078043056384273,0.5081342222222222,0.024202624978388928
0.9382536669560291,0.20617490552641454,-0.2925493044792848,-0.22377660618976528,-0.34810053033526034,-0.08236790237612773,0.6707180199078062,0.13164775099018783,0.5192281818181818,0.025169988469402025
0.936317018743797,0.2085549364436602,-0.29437981768411836,-0.2212376950699494,-0.34563000140188893,-0.08301510709010265,0.6668755946420698,0.13251507141653182,0.5303221414141414,0.026159004203448296
0.9343803705315651,0.2109349673609059,-0.296210330888952,-0.21869878395013354,-0.3431594724685176,-0.08366231180407757,0.6630331693763334,0.1333823918428758,0.541416101010101,0.027169672180528962
0.9324437223193306,0.2133149982781546,-0.29804084409378795,-0.21615987283031443,-0.340688943535143,-0.08430951651805332,0.6591907441105921,0.13424971226922092,0.5525100606060606,0.028201992400645366
0.9305070741070961,0.21569502919540331,-0.29987135729862385,-0.21362096171049533,-0.33821841460176844,-0.08495672123202908,0.6553483188448508,0.13511703269556602,0.5636040202020202,0.029255964863796224
0.928570425894864,0.218075060112649,-0.3017018705034575,-0.21108205059067944,-0.3357478856683971,-0.085603925946004,0.6515058935791144,0.13598435312191004,0.5746979797979798,0.030331589569980142
0.9266337776826321,0.22045509102989463,-0.30353238370829105,-0.2085431394708636,-0.3332773567350257,-0.08625113065997891,0.647663468313378,0.13685167354825403,0.5857919393939394,0.03142886651919846
0.9246971294703976,0.22283512194714336,-0.305362896913127,-0.20600422835104445,-0.3308068278016511,-0.08689833537395467,0.6438210430476367,0.13771899397459914,0.596885898989899,0.03254779571145262
0.9227604812581656,0.22521515286438903,-0.30719341011796064,-0.2034653172312286,-0.32833629886827975,-0.08754554008792959,0.6399786177819002,0.13858631440094313,0.6079798585858586,0.03368837714673977
0.9208238330459335,0.2275951837816347,-0.3090239233227942,-0.20092640611141274,-0.32586576993490834,-0.0881927448019045,0.6361361925161638,0.13945363482728712,0.6190738181818182,0.03485061082506131
0.918887184833699,0.2299752146988834,-0.3108544365276302,-0.1983874949915936,-0.3233952410015338,-0.08883994951588024,0.6322937672504225,0.14032095525363222,0.6301677777777778,0.03603449674641878
0.9169505366214645,0.23235524561613213,-0.31268494973246613,-0.1958485838717745,-0.3209247120681592,-0.089487154229856,0.6284513419846812,0.14118827567997733,0.6412617373737373,0.03724003491081071
0.9150138884092326,0.2347352765333778,-0.3145154629372997,-0.19330967275195862,-0.3184541831347878,-0.09013435894383091,0.6246089167189448,0.14205559610632132,0.6523556969696969,0.0384672253182355
0.9130772401970005,0.23711530745062345,-0.31634597614213333,-0.19077076163214277,-0.3159836542014164,-0.09078156365780583,0.6207664914532084,0.1429229165326653,0.6634496565656565,0.039716067968694695
0.911140591984766,0.23949533836787218,-0.3181764893469693,-0.18823185051232363,-0.31351312526804187,-0.09142876837178159,0.6169240661874671,0.14379023695901044,0.6745436161616161,0.04098656286218993
0.909203943772534,0.24187536928511785,-0.32000700255180287,-0.18569293939250778,-0.31104259633467046,-0.0920759730857565,0.6130816409217307,0.1446575573853544,0.6856375757575757,0.04227870999871794
0.9072672955603021,0.24425540020236353,-0.32183751575663644,-0.18315402827269192,-0.30857206740129905,-0.09272317779973142,0.6092392156559943,0.14552487781169843,0.6967315353535353,0.04359250937828036
0.9053306473480676,0.24663543111961223,-0.3236680289614724,-0.18061511715287282,-0.30610153846792454,-0.09337038251370716,0.605396790390253,0.14639219823804353,0.7078254949494949,0.0449279610008789
0.9033939991358331,0.24901546203686095,-0.32549854216630836,-0.17807620603305369,-0.30363100953454997,-0.09401758722768291,0.6015543651245117,0.14725951866438863,0.7189194545454545,0.04628506486651189
0.901457350923601,0.25139549295410657,-0.32732905537114193,-0.17553729491323783,-0.3011604806011786,-0.09466479194165783,0.5977119398587752,0.14812683909073263,0.7300134141414141,0.047663820975177545
0.899520702711369,0.25377552387135227,-0.32915956857597556,-0.17299838379342194,-0.29868995166780715,-0.09531199665563275,0.5938695145930388,0.14899415951707662,0.7411073737373737,0.04906422932687763
0.8975840544991345,0.256155554788601,-0.3309900817808115,-0.17045947267360284,-0.2962194227344326,-0.0959592013696085,0.5900270893272974,0.14986147994342172,0.7522013333333333,0.05048628992161392
0.8956474062869025,0.25853558570584667,-0.3328205949856451,-0.16792056155378696,-0.29374889380106123,-0.09660640608358342,0.5861846640615611,0.15072880036976571,0.7632952929292929,0.05193000275938281
0.8937107580746705,0.2609156166230924,-0.3346511081904787,-0.1653816504339711,-0.2912783648676898,-0.09725361079755834,0.5823422387958247,0.1515961207961097,0.7743892525252525,0.0533953678401861
0.891774109862436,0.26329564754034107,-0.3364816213953147,-0.162842739314152,-0.28880783593431525,-0.0979008155115341,0.5784998135300834,0.1524634412224548,0.7854832121212121,0.0548823851640257
0.8898374616502015,0.26567567845758977,-0.3383121346001506,-0.1603038281943329,-0.28633730700094073,-0.09854802022550985,0.5746573882643421,0.1533307616487999,0.7965771717171717,0.05639105473089976
0.8879008134379696,0.26805570937483547,-0.34014264780498416,-0.15776491707451704,-0.2838667780675693,-0.09919522493948477,0.5708149629986057,0.1541980820751439,0.8076711313131313,0.05792137654080629
0.8859641652257375,0.2704357402920812,-0.3419731610098178,-0.15522600595470112,-0.2813962491341979,-0.09984242965345969,0.5669725377328692,0.15506540250148793,0.8187650909090909,0.05947335059374726
0.884027517013503,0.27281577120932987,-0.34380367421465374,-0.15268709483488202,-0.27892572020082335,-0.10048963436743544,0.563130112467128,0.15593272292783303,0.8298590505050504,0.061046976889724616
0.882090868801271,0.2751958021265755,-0.34563418741948737,-0.15014818371506616,-0.276455191267452,-0.10113683908141036,0.5592876872013915,0.15680004335417702,0.84095301010101,0.06264225542873438
0.8801542205890389,0.27757583304382116,-0.34746470062432094,-0.14760927259525028,-0.2739846623340806,-0.10178404379538528,0.5554452619356551,0.157667363780521,0.8520469696969696,0.06425918621077854
0.8782175723768045,0.27995586396106986,-0.3492952138291569,-0.14507036147543118,-0.271514133400706,-0.10243124850936101,0.5516028366699138,0.15853468420686612,0.8631409292929292,0.06589776923585922
0.87628092416457,0.28233589487831856,-0.3511257270339928,-0.14253145035561207,-0.26904360446733144,-0.10307845322333677,0.5477604114041725,0.15940200463321122,0.8742348888888888,0.06755800450397434
0.874344275952338,0.28471592579556426,-0.35295624023882644,-0.13999253923579622,-0.2665730755339601,-0.10372565793731169,0.5439179861384361,0.1602693250595552,0.8853288484848484,0.06923989201512175
0.872407627740106,0.28709595671280996,-0.35478675344366006,-0.13745362811598036,-0.2641025466005887,-0.10437286265128659,0.5400755608726997,0.1611366454858992,0.896422808080808,0.07094343176930355
0.8704709795278714,0.28947598763005866,-0.356617266648496,-0.1349147169961612,-0.2616320176672141,-0.10502006736526236,0.5362331356069583,0.1620039659122443,0.9075167676767676,0.072668623766522
0.8685343313156395,0.29185601854730436,-0.3584477798533296,-0.13237580587634534,-0.2591614887338427,-0.10566727207923728,0.532390710341222,0.16287128633858833,0.9186107272727272,0.07441546800677264
0.8665976831034075,0.29423604946455,-0.36027829305816317,-0.1298368947565295,-0.2566909598004713,-0.1063144767932122,0.5285482850754856,0.1637386067649323,0.9297046868686868,0.07618396449005768
0.864661034891173,0.2966160803817987,-0.36210880626299913,-0.12729798363671035,-0.2542204308670968,-0.10696168150718793,0.5247058598097443,0.16460592719127742,0.9407986464646464,0.07797411321637941
0.8627243866789409,0.29899611129904435,-0.36393931946783276,-0.1247590725168945,-0.2517499019337254,-0.10760888622116285,0.5208634345440079,0.1654732476176214,0.951892606060606,0.07978591418573328
0.860787738466709,0.30137614221629005,-0.36576983267266633,-0.12222016139707864,-0.249279373000354,-0.10825609093513777,0.5170210092782714,0.1663405680439654,0.9629865656565656,0.08161936739812153
0.8588510902544745,0.30375617313353875,-0.3676003458775023,-0.11968125027725954,-0.24680884406697945,-0.10890329564911352,0.5131785840125301,0.16720788847031048,0.9740805252525252,0.08347447285354657
0.85691444204224,0.3061362040507875,-0.36943085908233825,-0.11714233915744038,-0.24433831513360485,-0.10955050036308928,0.5093361587467888,0.16807520889665561,0.9851744848484848,0.08535123055200611
0.8549777938300079,0.30851623496803315,-0.3712613722871718,-0.11460342803762452,-0.24186778620023347,-0.1101977050770642,0.5054937334810523,0.1689425293229996,0.9962684444444443,0.08724964049349761
0.853041145617776,0.31089626588527886,-0.37309188549200545,-0.11206451691780867,-0.2393972572668621,-0.11084490979103911,0.501651308215316,0.1698098497493436,1.007362404040404,0.08916970267802352
0.8511044974055415,0.31327629680252755,-0.3749223986968414,-0.10952560579798956,-0.23692672833348752,-0.11149211450501487,0.4978088829495747,0.17067717017568873,1.0184563636363635,0.09111141710558632
0.8491678491933095,0.3156563277197732,-0.376752911901675,-0.10698669467817368,-0.23445619940011614,-0.11213931921898979,0.4939664576838383,0.1715444906020327,1.029550323232323,0.09307478377618106
0.8472312009810774,0.31803635863701885,-0.37858342510650855,-0.10444778355835782,-0.23198567046674476,-0.1127865239329647,0.4901240324181019,0.17241181102837672,1.0406442828282827,0.09505980268981018
0.8452945527688429,0.32041638955426754,-0.3804139383113445,-0.10190887243853872,-0.2295151415333702,-0.11343372864694046,0.4862816071523606,0.1732791314547218,1.0517382424242423,0.0970664738464763
0.8433579045566084,0.32279642047151635,-0.3822444515161805,-0.09936996131871956,-0.22704461259999562,-0.11408093336091621,0.4824391818866192,0.17414645188106692,1.062832202020202,0.09909479724617688
0.8414212563443764,0.32517645138876194,-0.3840749647210141,-0.0968310501989037,-0.2245740836666242,-0.11472813807489113,0.4785967566208828,0.17501377230741091,1.0739261616161615,0.10114477288890926
0.8394846081321444,0.32755648230600765,-0.3859054779258477,-0.09429213907908784,-0.22210355473325283,-0.11537534278886605,0.47475433135514644,0.1758810927337549,1.085020121212121,0.10321640077467605
0.8375479599199099,0.32993651322325634,-0.38773599113068363,-0.09175322795926874,-0.21963302579987828,-0.11602254750284179,0.4709119060894051,0.1767484131601,1.0961140808080807,0.10530968090347992
0.8356113117076779,0.33231654414050205,-0.3895665043355172,-0.08921431683945288,-0.21716249686650688,-0.1166697522168167,0.4670694808236687,0.177615733586444,1.1072080404040403,0.10742461327531552
0.83367466349544594,0.3346965750577477,-0.39139701754035083,-0.086675405719637,-0.2146919679331355,-0.11731695693079162,0.4632270555579323,0.178483054012788,1.118302,0.10956119789018554
1.4491847527369996,0.031521948193937326,-0.13701129994211533,-0.4702967047550148,-0.6561163781301667,-0.09221161538612548,0.9043745501943982,-0.029445252911912984,0.02,0.004840775734765493
1.4500145819632992,0.030890194826589043,-0.13702981104647033,-0.4705224605366259,-0.6558992880235137,-0.09233376044256628,0.904310574553724,-0.029430031294435947,0.031093959595959595,0.004850364687608437
1.4508444111895964,0.030258441459242377,-0.13704832215082527,-0.4707482163182364,-0.6556821979168614,-0.09245590549900676,0.90424659891305,-0.029414809676958947,0.04218791919191919,0.004861991992429913
1.451674240415896,0.02962668809189409,-0.13706683325518026,-0.4709739720998475,-0.6554651078102085,-0.09257805055544756,0.9041826232723759,-0.02939958805948191,0.05328187878787878,0.004875657649229984
1.4525040696421954,0.028994934724545805,-0.13708534435953526,-0.4711997278814586,-0.6552480177035556,-0.09270019561188836,0.9041186476317017,-0.029384366442004872,0.06437583838383838,0.00489136165800862
1.4533338988684927,0.02836318135719914,-0.13710385546389023,-0.47142548366306913,-0.6550309275969033,-0.09282234066832884,0.9040546719910276,-0.029369144824527873,0.07546979797979797,0.0049091040187657755
1.454163728094792,0.027731427989850854,-0.13712236656824522,-0.47165123944468024,-0.65481383749025035,-0.09294448572476964,0.9039906963503535,-0.029353923207050835,0.08656375757575757,0.00492888473150154
1.4549935573210915,0.027099674622502568,-0.13714087767260022,-0.47187699522629134,-0.6545967473835975,-0.09306663078121043,0.9039267207096793,-0.029338701589573798,0.09765771717171716,0.004950703796215869
1.4558233865473889,0.026467921255155902,-0.13715938877695516,-0.4721027510079019,-0.6543796572769451,-0.09318877583765091,0.9038627450690052,-0.0293234799720968,0.10875167676767676,0.004974561212908702
1.4566532157736904,0.025836167887806002,-0.1371778998813102,-0.47232850678951355,-0.6541625671702916,-0.09331092089409203,0.9037987694283309,-0.029308258354619723,0.11984563636363636,0.005000456981580228
1.4574830449999878,0.025204414520459333,-0.13719641098566515,-0.4725542625711241,-0.6539454770636394,-0.09343306595053251,0.9037347937876569,-0.029293036737142723,0.13093959595959595,0.005028391102230183
1.4583128742262872,0.024572661153111047,-0.13721492209002015,-0.4727800183527352,-0.6537283869569864,-0.09355521100697331,0.9036708181469827,-0.029277815119665686,0.14203355555555552,0.005058363574858773
1.4591427034525866,0.023940907785762765,-0.13723343319437514,-0.4730057741343463,-0.6535112968503336,-0.0936773560634141,0.9036068425063085,-0.029262593502188648,0.15312751515151513,0.005090374399465929
1.459972532678884,0.0233091544184161,-0.1372519442987301,-0.47323152991595685,-0.6532942067436812,-0.09379950111985459,0.9035428668656345,-0.02924737188471165,0.16422147474747473,0.005124423576051561
1.4608023619051833,0.022677401051067813,-0.1372704554030851,-0.47345728569756795,-0.6530771166370284,-0.09392164617629538,0.9034788912249603,-0.02923215026723461,0.1753154343434343,0.005160511104615844
1.461632191131483,0.022045647683719527,-0.1372889665074401,-0.47368304147917906,-0.6528600265303754,-0.09404379123273618,0.9034149155842861,-0.029216928649757574,0.1864093939393939,0.005198636985158694
1.46246202035778,0.02141389431637286,-0.13730747761179504,-0.47390879726078955,-0.6526429364237231,-0.09416593628917666,0.9033509399436122,-0.029201707032280574,0.1975033535353535,0.005238801217680004
1.4632918495840797,0.020782140949024575,-0.13732598871615004,-0.47413455304240065,-0.6524258463170702,-0.09428808134561746,0.903286964302938,-0.029186485414803537,0.2085973131313131,0.005281003802179981
1.464121678810379,0.020150387581676293,-0.13734449982050503,-0.47436030882401176,-0.6522087562104173,-0.09441022640205826,0.9032229886622638,-0.0291712637973265,0.2196912727272727,0.005325244738658523
1.4649515080366764,0.019518634214329623,-0.13736301092485997,-0.4745860646056223,-0.651991666103765,-0.09453237145849874,0.9031590130215897,-0.0291560421798495,0.23078523232323228,0.005371524027115511
1.4657813372629758,0.01888688084698134,-0.13738152202921497,-0.4748118203872334,-0.6517745759971121,-0.09465451651493954,0.9030950373809156,-0.029140820562372462,0.24187919191919188,0.005419841667551181
1.4666111664892751,0.018255127479633055,-0.13740003313356997,-0.4750375761688445,-0.6515574858904591,-0.09477666157138033,0.9030310617402414,-0.029125598944895425,0.2529731515151515,0.005470197659965418
1.4674409957155725,0.01762337411228639,-0.13741854423792493,-0.47526333195045506,-0.6513403957838069,-0.09489880662782083,0.9029670860995673,-0.029110377327418425,0.2640671111111111,0.005522592004358083
1.468270824941874,0.016991620744936486,-0.13743705534227996,-0.4754890877320667,-0.6511233056771534,-0.09502095168426193,0.902903110458893,-0.029095155709941346,0.2751610707070707,0.005577024700729589
1.4691006541681715,0.016359867377589817,-0.13745556644663492,-0.47571484351367727,-0.6509062155705011,-0.09514309674070241,0.902839134818219,-0.02907993409246435,0.2862550303030303,0.005633495749079376
1.4699304833944686,0.015728114010243155,-0.13747407755098986,-0.47594059929528776,-0.6506891254638487,-0.0952652417971429,0.902775159177545,-0.02906471247498735,0.2973489898989899,0.00569200514940772
1.4707603126207702,0.015096360642893249,-0.13749258865534492,-0.4761663550768995,-0.6504720353571953,-0.095387386853584,0.9027111835368706,-0.029049490857510272,0.3084429494949495,0.005752552901714935
1.4715901418470676,0.014464607275546583,-0.13751109975969986,-0.47639211085851,-0.650254945250543,-0.0955095319100245,0.9026472078961966,-0.029034269240033276,0.3195369090909091,0.0058151390060004
1.472419971073367,0.013832853908198297,-0.13752961086405485,-0.4766178666401211,-0.65003785514389,-0.09563167696646528,0.9025832322555224,-0.02901904762255624,0.33063086868686864,0.005879763462264589
1.4732498002996666,0.013201100540850014,-0.13754812196840985,-0.4768436224217322,-0.6498207650372372,-0.09575382202290608,0.9025192566148482,-0.029003826005079197,0.34172482828282824,0.005946426270507345
1.4740796295259637,0.012569347173503349,-0.13756663307276482,-0.4770693782033427,-0.6496036749305848,-0.09587596707934656,0.9024552809741743,-0.0289886043876022,0.35281878787878784,0.006015127430728488
1.4749094587522633,0.011937593806155063,-0.1375851441771198,-0.4772951339849538,-0.649386584823932,-0.09599811213578736,0.9023913053335001,-0.028973382770125164,0.36391274747474744,0.0060858669429283705
1.4757392879785627,0.011305840438806777,-0.1376036552814748,-0.4775208897665649,-0.649169494717279,-0.09612025719222816,0.9023273296928259,-0.028958161152648126,0.37500670707070705,0.00615864480710682
1.47656911720486,0.010674087071460111,-0.13762216638582975,-0.4777466455481755,-0.6489524046106268,-0.09624240224866865,0.9022633540521519,-0.028942939535171127,0.38610066666666665,0.00623346102326364
1.4773989464311594,0.010042333704111828,-0.13764067749018474,-0.4779724013297866,-0.6487353145039738,-0.09636454730510945,0.9021993784114777,-0.02892771791769409,0.39719462626262625,0.006310315591399216
1.4782287756574588,0.009410580336763539,-0.13765918859453974,-0.4781981571113977,-0.6485182243973209,-0.09648669236155023,0.9021354027708035,-0.028912496300217052,0.40828858585858585,0.006389208511513359
1.4790586048837562,0.008778826969416877,-0.13767769969889468,-0.47842391289300823,-0.6483011342906686,-0.09660883741799073,0.9020714271301294,-0.028897274682740053,0.41938254545454545,0.006470139783605858
1.4798884341100556,0.00814707360206859,-0.13769621080324967,-0.47864966867461933,-0.6480840441840157,-0.09673098247443151,0.9020074514894553,-0.028882053065263015,0.430476505050505,0.006553109407677128
1.4807182633363551,0.007515320234720308,-0.13771472190760467,-0.47887542445623044,-0.6478669540773628,-0.09685312753087232,0.9019434758487811,-0.028866831447785977,0.4415704646464646,0.006638117383726963
1.4815480925626523,0.006883566867373642,-0.13773323301195964,-0.47910118023784093,-0.6476498639707104,-0.0969752725873128,0.9018795002081071,-0.028851609830308978,0.4526644242424242,0.006725163711755139
1.482377921788954,0.006251813500023733,-0.13775174411631466,-0.47932693601945264,-0.647432773864057,-0.09709741764375392,0.9018155245674327,-0.0288363882128319,0.4637583838383838,0.0068142483917623346
1.4832077510152513,0.00562006013267707,-0.13777025522066963,-0.4795526918010632,-0.6472156837574047,-0.0972195627001944,0.9017515489267587,-0.028821166595354903,0.4748523434343434,0.006905371423747632
1.4840375802415506,0.004988306765328784,-0.13778876632502463,-0.4797784475826743,-0.6469985936507517,-0.0973417077566352,0.9016875732860845,-0.028805944977877862,0.485946303030303,0.006998532807711727
1.4848674094678502,0.004356553397980502,-0.13780727742937962,-0.4800042033642854,-0.6467815035440989,-0.09746385281307599,0.9016235976454103,-0.028790723360400824,0.4970402626262626,0.007093732543654389
1.4856972386941474,0.0037248000306338326,-0.13782578853373456,-0.4802299591458959,-0.6465644134374465,-0.09758599786951647,0.9015596220047364,-0.02877550174292383,0.5081342222222222,0.0071909706315753654
1.486527067920447,0.0030930466632855466,-0.13784429963808956,-0.480455714927507,-0.6463473233307937,-0.09770814292595727,0.9014956463640622,-0.02876028012544679,0.5192281818181818,0.0072902470714751545
1.4873568971467463,0.002461293295937264,-0.13786281074244455,-0.4806814707091181,-0.6461302332241408,-0.09783028798239807,0.901431670723388,-0.028745058507969753,0.5303221414141414,0.00739156186335351
1.4881867263730437,0.0018295399285905983,-0.13788132184679952,-0.48090722649072865,-0.6459131431174884,-0.09795243303883855,0.901367695082714,-0.028729836890492754,0.541416101010101,0.0074949150072101635
1.489016555599343,0.0011977865612423158,-0.13789983295115452,-0.48113298227233975,-0.6456960530108355,-0.09807457809527935,0.9013037194420398,-0.028714615273015717,0.5525100606060606,0.007600306503045645
1.4898463848256425,5.660331938940263e-4,-0.1379183440555095,-0.48135873805395085,-0.6454789629041826,-0.09819672315172015,0.9012397438013656,-0.028699393655538676,0.5636040202020202,0.0077077363508596935
1.4906762140519398,-6.572017345263248e-5,-0.13793685515986445,-0.4815844938355614,-0.6452618727975303,-0.09831886820816063,0.9011757681606916,-0.02868417203806168,0.5746979797979798,0.007817204550652025
1.4915060432782392,-6.974735408009219e-4,-0.13795536626421945,-0.4818102496171725,-0.6450447826908774,-0.09844101326460142,0.9011117925200174,-0.028668950420584642,0.5857919393939394,0.007928711102423202
1.4923358725045388,-0.0013292269081492114,-0.13797387736857444,-0.4820360053987836,-0.6448276925842246,-0.09856315832104222,0.9010478168793432,-0.028653728803107605,0.596885898989899,0.008042256006172943
1.493165701730836,-0.0019609802754958702,-0.13799238847292938,-0.4822617611803941,-0.6446106024775722,-0.0986853033774827,0.9009838412386693,-0.028638507185630605,0.6079798585858586,0.008157839261900952
1.4939955309571376,-0.0025927336428457765,-0.13801089957728443,-0.4824875169620058,-0.6443935123709187,-0.09880744843392382,0.9009198655979949,-0.028623285568153526,0.6190738181818182,0.008275460869608125
1.494825360183435,-0.003224487010192442,-0.13802941068163938,-0.4827132727436163,-0.6441764222642664,-0.0989295934903643,0.9008558899573209,-0.02860806395067653,0.6301677777777778,0.008395120829293258
1.4956551894097323,-0.003856240377539108,-0.13804792178599434,-0.48293902852522685,-0.643959332157614,-0.09905173854680478,0.9007919143166468,-0.02859284233319953,0.6412617373737373,0.008516819140956944
1.496485018636034,-0.004487993744889014,-0.13806643289034937,-0.48316478430683857,-0.6437422420509606,-0.09917388360324589,0.9007279386759725,-0.02857762071572245,0.6523556969696969,0.008640555804599827
1.497314847862331,-0.00511974711223568,-0.13808494399470433,-0.48339054008844906,-0.6435251519443083,-0.09929602865968637,0.9006639630352985,-0.028562399098245456,0.6634496565656565,0.008766330820220637
1.4981446770886306,-0.0057515004795839625,-0.13810345509905933,-0.48361629587006016,-0.6433080618376553,-0.09941817371612717,0.9005999873946243,-0.028547177480768418,0.6745436161616161,0.008894144187820332
1.49897450631493,-0.006383253846932252,-0.13812196620341433,-0.48384205165167127,-0.6430909717310025,-0.09954031877256797,0.9005360117539501,-0.028531955863291377,0.6856375757575757,0.009023995907398592
1.4998043355412274,-0.007015007214278911,-0.13814047730776927,-0.4840678074332818,-0.6428738816243501,-0.09966246382900845,0.9004720361132761,-0.02851673424581438,0.6967315353535353,0.00915588597895508
1.5006341647675268,-0.0076467605816272,-0.13815898841212426,-0.4842935632148929,-0.6426567915176973,-0.09978460888544925,0.9004080604726019,-0.02850151262833734,0.7078254949494949,0.009289814402490468
1.5014639939938261,-0.00827851394897549,-0.13817749951647926,-0.484519318996504,-0.6424397014110443,-0.09990675394189005,0.9003440848319277,-0.028486291010860303,0.7189194545454545,0.009425781178004421
1.5022938232201235,-0.008910267316322149,-0.13819601062083423,-0.48474507477811457,-0.6422226113043921,-0.10002889899833053,0.9002801091912537,-0.028471069393383307,0.7300134141414141,0.009563786305496588
1.5031236524464229,-0.009542020683670438,-0.13821452172518922,-0.4849708305597257,-0.6420055211977391,-0.10015104405477132,0.9002161335505795,-0.02845584777590627,0.7411073737373737,0.009703829784967668
1.5039534816727225,-0.01017377405101872,-0.13823303282954422,-0.4851965863413368,-0.6417884310910862,-0.10027318911121212,0.9001521579099053,-0.028440626158429228,0.7522013333333333,0.009845911616417317
1.5047833108990196,-0.010805527418365386,-0.13825154393389916,-0.48542234212294727,-0.6415713409844339,-0.1003953341676526,0.9000881822692314,-0.028425404540952232,0.7632952929292929,0.009990031799845159
1.5056131401253212,-0.011437280785715292,-0.1382700550382542,-0.485648097904559,-0.6413542508777804,-0.10051747922409372,0.900024206628557,-0.028410182923475153,0.7743892525252525,0.010136190335252312
1.5064429693516186,-0.012069034153061958,-0.13828856614260915,-0.4858738536861695,-0.6411371607711281,-0.1006396242805342,0.899960230987883,-0.028394961305998154,0.7854832121212121,0.010284387222637276
1.507272798577916,-0.012700787520408624,-0.1383070772469641,-0.48609960946778,-0.6409200706644758,-0.10076176933697469,0.899896255347209,-0.028379739688521158,0.7965771717171717,0.010434622462000796
1.5081026278042176,-0.01333254088775853,-0.13832558835131914,-0.48632536524939174,-0.6407029805578224,-0.10088391439341579,0.8998322797065346,-0.02836451807104408,0.8076711313131313,0.010586896053343658
1.5089324570305147,-0.013964294255105189,-0.13834409945567408,-0.48655112103100223,-0.64048589045117,-0.10100605944985627,0.8997683040658606,-0.028349296453567083,0.8187650909090909,0.010741207996664299
1.5097622862568143,-0.014596047622453479,-0.13836261056002908,-0.48677687681261333,-0.640268800344517,-0.10112820450629707,0.8997043284251864,-0.02833407483609004,0.8298590505050504,0.010897558291963901
1.5105921154831137,-0.015227800989801761,-0.13838112166438407,-0.48700263259422444,-0.6400517102378642,-0.10125034956273787,0.8996403527845123,-0.028318853218613004,0.84095301010101,0.011055946939242068
1.511421944709411,-0.015859554357148427,-0.13839963276873904,-0.487228388375835,-0.6398346201312118,-0.10137249461917835,0.8995763771438382,-0.028303631601136008,0.8520469696969696,0.011216373938498388
1.5122517739357104,-0.016491307724496716,-0.13841814387309404,-0.4874541441574461,-0.639617530024559,-0.10149463967561916,0.899512401503164,-0.028288409983658967,0.8631409292929292,0.011378839289733683
1.5130816031620098,-0.017123061091845,-0.13843665497744903,-0.4876798999390572,-0.6394004399179061,-0.10161678473205996,0.8994484258624899,-0.02827318836618193,0.8742348888888888,0.011543342992947545
1.5139114323883072,-0.017754814459191665,-0.13845516608180397,-0.48790565572066774,-0.6391833498112537,-0.10173892978850044,0.8993844502218158,-0.028257966748704934,0.8853288484848484,0.01170988504813954
1.5147412616146065,-0.018386567826539954,-0.13847367718615897,-0.48813141150227884,-0.6389662597046009,-0.10186107484494124,0.8993204745811416,-0.028242745131227896,0.896422808080808,0.01187846545531053
1.5155710908409061,-0.019018321193888237,-0.13849218829051396,-0.48835716728388995,-0.6387491695979479,-0.10198321990138202,0.8992564989404674,-0.028227523513750855,0.9075167676767676,0.012049084214460083
1.5164009200672033,-0.019650074561234902,-0.13851069939486893,-0.48858292306550044,-0.6385320794912956,-0.10210536495782252,0.8991925232997935,-0.02821230189627386,0.9186107272727272,0.01222174132558776
1.5172307492935029,-0.020281827928583192,-0.13852921049922393,-0.48880867884711154,-0.6383149893846427,-0.1022275100142633,0.8991285476591193,-0.02819708027879682,0.9297046868686868,0.01239643678869444
1.5180605785198023,-0.020913581295931474,-0.13854772160357892,-0.48903443462872265,-0.6380978992779899,-0.10234965507070411,0.8990645720184451,-0.02818185866131978,0.9407986464646464,0.012573170603779691
1.5188904077460996,-0.02154533466327814,-0.13856623270793386,-0.4892601904103332,-0.6378808091713375,-0.10247180012714459,0.8990005963777711,-0.028166637043842785,0.951892606060606,0.012751942770843043
1.5197202369724012,-0.02217708803062804,-0.1385847438122889,-0.48948594619194485,-0.637663719064684,-0.1025939451835857,0.8989366207370967,-0.028151415426365706,0.9629865656565656,0.012932753289885881
1.5205500661986984,-0.022808841397974712,-0.13860325491664385,-0.4897117019735554,-0.6374466289580317,-0.10271609024002619,0.8988726450964227,-0.028136193808888706,0.9740805252525252,0.01311560216090636
1.521379895424998,-0.023440594765323,-0.13862176602099885,-0.4899374577551665,-0.6372295388513788,-0.10283823529646699,0.8988086694557486,-0.02812097219141167,0.9851744848484848,0.013300489383905868
1.5222097246512973,-0.024072348132671284,-0.13864027712535384,-0.4901632135367776,-0.637012448744726,-0.10296038035290778,0.8987446938150744,-0.02810575057393463,0.9962684444444443,0.01348741495888394
1.5230395538775947,-0.02470410150001795,-0.13865878822970878,-0.49038896931838816,-0.6367953586380736,-0.10308252540934826,0.8986807181744003,-0.028090528956457632,1.007362404040404,0.013676378885840093
1.523869383103894,-0.025335854867366232,-0.13867729933406378,-0.49061472509999926,-0.6365782685314206,-0.10320467046578906,0.8986167425337261,-0.028075307338980594,1.0184563636363635,0.013867381164775294
1.5246992123301935,-0.025967608234714522,-0.13869581043841878,-0.49084048088161036,-0.6363611784247678,-0.10332681552222986,0.898552766893052,-0.028060085721503557,1.029550323232323,0.014060421795689062
1.5255290415564908,-0.026599361602061188,-0.13871432154277374,-0.4910662366632209,-0.6361440883181154,-0.10344896057867034,0.8984887912523779,-0.02804486410402656,1.0406442828282827,0.014255500778580892
1.5263588707827902,-0.02723111496940947,-0.13873283264712874,-0.491291992444832,-0.6359269982114626,-0.10357110563511114,0.8984248156117037,-0.02802964248654952,1.0517382424242423,0.014452618113451787
1.5271887000090898,-0.02786286833675776,-0.13875134375148374,-0.4915177482264431,-0.6357099081048097,-0.10369325069155194,0.8983608399710296,-0.028014420869072482,1.062832202020202,0.014651773800301247
1.528018529235387,-0.02849462170410442,-0.13876985485583868,-0.4917435040080536,-0.6354928179981574,-0.10381539574799242,0.8982968643303556,-0.027999199251595483,1.0739261616161615,0.014852967839128754
1.5288483584616865,-0.029126375071452708,-0.13878836596019367,-0.4919692597896647,-0.6352757278915044,-0.10393754080443321,0.8982328886896814,-0.027983977634118445,1.085020121212121,0.015056200229935342
1.529678187687986,-0.029758128438800997,-0.13880687706454867,-0.4921950155712758,-0.6350586377848515,-0.10405968586087401,0.8981689130490073,-0.027968756016641408,1.0961140808080807,0.015261470972720497
